{"learner":{"attributes":{"scikit_learn":"{\"_estimator_type\": \"classifier\"}"},"feature_names":[],"feature_types":[],"gradient_booster":{"model":{"gbtree_model_param":{"num_parallel_tree":"1","num_trees":"100"},"iteration_indptr":[0,1,2,3,4,5,6,7,8,9,10,11,12,13,14,15,16,17,18,19,20,21,22,23,24,25,26,27,28,29,30,31,32,33,34,35,36,37,38,39,40,41,42,43,44,45,46,47,48,49,50,51,52,53,54,55,56,57,58,59,60,61,62,63,64,65,66,67,68,69,70,71,72,73,74,75,76,77,78,79,80,81,82,83,84,85,86,87,88,89,90,91,92,93,94,95,96,97,98,99,100],"tree_info":[0,0,0,0,0,0,0,0,0,0,0,0,0,0,0,0,0,0,0,0,0,0,0,0,0,0,0,0,0,0,0,0,0,0,0,0,0,0,0,0,0,0,0,0,0,0,0,0,0,0,0,0,0,0,0,0,0,0,0,0,0,0,0,0,0,0,0,0,0,0,0,0,0,0,0,0,0,0,0,0,0,0,0,0,0,0,0,0,0,0,0,0,0,0,0,0,0,0,0,0],"trees":[{"base_weights":[-0E0,-1.6808077E0,7.4025464E-1,-1.7606294E0,1.1691395E0,1.1588174E0,-1.9935205E0,-1.8421793E0,-1.2587413E-1,1.8417267E0,-5.619048E-1,1.3159962E0,-1.6789929E0,-5.993512E-1,2.0000002E-1,-1.9087974E0,-1.2515022E0,9.9705017E-1,-1.7299578E0,1.8978102E0,-3E-1,1.4550836E0,-1.8748697E0,-1.8444632E0,5.217391E-1,-1.9160043E0,6.25E-1,-1.7230769E0,-2.9305914E-1,-1.0819672E0,1.4326241E0,-1.7939914E0,3E-1,1.9555556E0,-3E-1,1.5260601E0,-1.2936937E0,8.5714287E-1,-1.9072708E0,-1.880444E0,3.75E-1,-1.4285715E0,1.2941177E0,-5.7695264E-1,-0E0,4.0800002E-1,-3.818182E-1,-5.6987447E-1,8.059702E-2,2.1038963E-1,-5.1111114E-1,2.0000002E-1,-3.857143E-1,-4.666667E-1,4.835821E-1,-5.5807865E-1,3E-1,5.909775E-1,1.5E-1,4.6758425E-1,-5.820896E-1,-4.5882356E-1,1.6363637E-1,-0E0,3.6E-1,-5.770701E-1,5.454546E-2,-5.746479E-1,-2.0000002E-1,-5E-1,-0E0,5.186441E-1,-3.2307696E-1],"categories":[],"categories_nodes":[],"categories_segments":[],"categories_sizes":[],"default_left":[0,0,0,0,0,0,0,0,0,0,0,0,0,0,0,0,0,0,0,0,0,0,0,0,0,0,0,0,0,0,0,0,0,0,0,0,0,0,0,0,0,0,0,0,0,0,0,0,0,0,0,0,0,0,0,0,0,0,0,0,0,0,0,0,0,0,0,0,0,0,0,0,0],"id":0,"left_children":[1,3,5,7,9,11,13,15,17,19,-1,21,23,-1,-1,25,27,29,31,33,-1,35,37,39,41,43,45,47,49,51,53,55,-1,57,-1,59,61,63,65,67,-1,69,71,-1,-1,-1,-1,-1,-1,-1,-1,-1,-1,-1,-1,-1,-1,-1,-1,-1,-1,-1,-1,-1,-1,-1,-1,-1,-1,-1,-1,-1,-1],"loss_changes":[1.2493893E4,7.00501E2,7.97921E3,3.9797754E2,1.7583475E2,2.6990996E3,1.1965576E1,1.0956152E2,2.5930566E2,1.2974319E1,0E0,2.5455332E3,1.1667279E2,0E0,0E0,4.784961E1,1.3113348E2,7.829676E1,1.2151428E1,1.3417999E1,0E0,1.0732119E3,2.2857544E1,3.5279785E1,3.6495434E1,3.500586E1,1.2889545E1,6.906268E1,1.3760597E2,6.2903976E0,4.02834E1,1.2645798E1,0E0,4.2681885E-1,0E0,6.070781E2,6.09852E1,1.0285714E0,8.426636E0,1.1177124E1,0E0,2.380952E0,1.9383389E1,0E0,0E0,0E0,0E0,0E0,0E0,0E0,0E0,0E0,0E0,0E0,0E0,0E0,0E0,0E0,0E0,0E0,0E0,0E0,0E0,0E0,0E0,0E0,0E0,0E0,0E0,0E0,0E0,0E0,0E0],"parents":[2147483647,0,0,1,1,2,2,3,3,4,4,5,5,6,6,7,7,8,8,9,9,11,11,12,12,15,15,16,16,17,17,18,18,19,19,21,21,22,22,23,23,24,24,25,25,26,26,27,27,28,28,29,29,30,30,31,31,33,33,35,35,36,36,37,37,38,38,39,39,41,41,42,42],"right_children":[2,4,6,8,10,12,14,16,18,20,-1,22,24,-1,-1,26,28,30,32,34,-1,36,38,40,42,44,46,48,50,52,54,56,-1,58,-1,60,62,64,66,68,-1,70,72,-1,-1,-1,-1,-1,-1,-1,-1,-1,-1,-1,-1,-1,-1,-1,-1,-1,-1,-1,-1,-1,-1,-1,-1,-1,-1,-1,-1,-1,-1],"split_conditions":[1.3466785E-2,1.0735055E-1,5.434133E-3,2.2374704E-2,9.531523E-3,5.6827776E-3,5.6193333E-2,8.264731E-2,6.851906E-3,2.3423443E-2,-5.619048E-1,9.040117E-3,1.9360976E-2,-5.993512E-1,2.0000002E-1,1.819873E-1,8.738353E-2,7.3537655E-2,1.1903346E-2,1.9633776E-1,-3E-1,5.599511E-3,5.5809845E-3,1.441777E-2,1.4537952E-2,4.4932842E-2,7.699923E-3,1.23839594E-1,6.851906E-3,4.8191957E-2,5.82051E-3,1.6794814E-1,3E-1,1.9809894E-1,-3E-1,4.865285E-2,9.140895E-2,1.3094686E-2,3.7916526E-2,8.754905E-2,3.75E-1,5.060735E-2,1.4020443E-1,-5.7695264E-1,-0E0,4.0800002E-1,-3.818182E-1,-5.6987447E-1,8.059702E-2,2.1038963E-1,-5.1111114E-1,2.0000002E-1,-3.857143E-1,-4.666667E-1,4.835821E-1,-5.5807865E-1,3E-1,5.909775E-1,1.5E-1,4.6758425E-1,-5.820896E-1,-4.5882356E-1,1.6363637E-1,-0E0,3.6E-1,-5.770701E-1,5.454546E-2,-5.746479E-1,-2.0000002E-1,-5E-1,-0E0,5.186441E-1,-3.2307696E-1],"split_indices":[97,108,1487,612,329,885,1123,227,125,89,0,1486,612,0,0,836,610,112,128,167,0,27,1044,805,610,128,14,1154,125,612,557,443,0,12,0,133,201,114,612,1033,0,7,90,0,0,0,0,0,0,0,0,0,0,0,0,0,0,0,0,0,0,0,0,0,0,0,0,0,0,0,0,0,0],"split_type":[0,0,0,0,0,0,0,0,0,0,0,0,0,0,0,0,0,0,0,0,0,0,0,0,0,0,0,0,0,0,0,0,0,0,0,0,0,0,0,0,0,0,0,0,0,0,0,0,0,0,0,0,0,0,0,0,0,0,0,0,0,0,0,0,0,0,0,0,0,0,0,0,0],"sum_hessian":[1.00395E4,3.06925E3,6.97025E3,2.986E3,8.325E1,6.04525E3,9.25E2,2.844E3,1.42E2,6.85E1,1.475E1,5.7285E3,3.1675E2,9.2375E2,1.25E0,2.55375E3,2.9025E2,8.375E1,5.825E1,6.75E1,1E0,5.48975E3,2.3875E2,2.9475E2,2.2E1,2.54675E3,7E0,1.94E2,9.625E1,1.425E1,6.95E1,5.725E1,1E0,6.65E1,1E0,5.352E3,1.3775E2,2.5E0,2.3625E2,2.9175E2,3E0,6E0,1.6E1,2.53725E3,9.5E0,5.25E0,1.75E0,1.7825E2,1.575E1,5.675E1,3.95E1,1.25E0,1.3E1,3.5E0,6.6E1,5.625E1,1E0,6.55E1,1E0,5.30275E3,4.925E1,1.2225E2,1.55E1,1E0,1.5E0,2.345E2,1.75E0,2.83E2,8.75E0,5E0,1E0,1.375E1,2.25E0],"tree_param":{"num_deleted":"0","num_feature":"1536","num_nodes":"73","size_leaf_vector":"1"}},{"base_weights":[-2.837711E-3,-1.2882048E0,5.5315775E-1,-1.3808292E0,2.5499833E-1,1.0443827E0,-8.19093E-1,-1.4058865E0,7.1226805E-1,9.7721624E-1,-1.508823E0,1.1541339E0,-8.850716E-1,-1.5823112E0,7.9289985E-1,-1.5129191E0,-1.0391374E0,1.3945987E0,-3.946778E-1,1.254912E0,-4.6729845E-1,-4.6422663E-1,-5.98573E-1,1.2200007E0,-1.0353189E0,4.3859038E-1,-1.3815931E0,-1.6377618E0,9.127749E-1,-9.717965E-1,1.2129248E0,-1.5201787E0,1.0698638E0,-1.4859616E0,-5.643976E-1,4.3805227E-1,1.4612745E-2,2.9700026E-1,1.5057912E0,5.1059965E-3,-2.7250636E-1,1.2658759E0,-1.4836409E0,-1.2973359E0,6.5528744E-1,-1.0955036E0,8.271674E-1,-1.737587E0,1.1846802E0,-1.6683371E0,-4.9909767E-2,1.3724967E0,-3.7395918E-1,4.4009742E-1,-1.3259643E0,1.3145381E0,-5.77437E-1,-4.5676467E-1,3.4289372E-1,4.5514104E-1,-1.5095416E-1,-4.4862726E-1,1.6758125E-1,5.1938854E-3,-4.1924742E-1,-1.9552755E-1,2.733641E-1,4.717234E-1,6.7222185E-2,3.8910586E-1,-5.9999996E-1,-4.5841077E-1,1.9552608E-1,-4.1620308E-1,-2.4373675E-2,-2.9901806E-1,3.651942E-1,-4.4923046E-1,3.2575008E-1,3.0740875E-1,-3.8549212E-1,-5.4809976E-1,2.6090974E-1,4.3703517E-1,-2.7203077E-1,-5.627017E-1,-4.617704E-1,-3.1653097E-1,4.3672788E-1,4.5622507E-1,-4.2542685E-2,-3.6232215E-1,3.5560846E-1,-4.2814252E-1,1.9517936E-2,4.1511768E-1,-4.2361194E-1],"categories":[],"categories_nodes":[],"categories_segments":[],"categories_sizes":[],"default_left":[0,0,0,0,0,0,0,0,0,0,0,0,0,0,0,0,0,0,0,0,0,0,0,0,0,0,0,0,0,0,0,0,0,0,0,0,0,0,0,0,0,0,0,0,0,0,0,0,0,0,0,0,0,0,0,0,0,0,0,0,0,0,0,0,0,0,0,0,0,0,0,0,0,0,0,0,0,0,0,0,0,0,0,0,0,0,0,0,0,0,0,0,0,0,0,0,0],"id":1,"left_children":[1,3,5,7,9,11,13,15,17,19,21,23,25,27,29,31,33,35,-1,37,-1,-1,39,41,43,45,47,49,51,53,55,57,59,61,63,-1,-1,65,67,-1,-1,69,71,73,75,77,79,81,83,85,87,89,-1,91,93,95,-1,-1,-1,-1,-1,-1,-1,-1,-1,-1,-1,-1,-1,-1,-1,-1,-1,-1,-1,-1,-1,-1,-1,-1,-1,-1,-1,-1,-1,-1,-1,-1,-1,-1,-1,-1,-1,-1,-1,-1,-1],"loss_changes":[6.7171157E3,4.0601416E2,4.423544E3,1.4142871E2,2.0725395E2,1.0242344E3,2.129794E3,1.02299805E2,4.657969E1,8.305941E1,7.364044E-1,6.60647E2,1.718951E2,1.6399219E2,4.1373334E2,3.99917E1,1.2664606E2,2.1072235E0,0E0,2.4641174E1,0E0,0E0,6.935657E-1,5.52478E2,6.024141E1,4.373919E1,1.7542838E2,5.5715576E1,2.7696E1,5.4370155E1,1.4601447E2,1.462207E1,5.211491E0,6.8131104E0,1.4201953E2,0E0,0E0,1.3945966E1,6.6907654E0,0E0,0E0,4.4663428E2,8.061249E0,1.2630341E1,1.8534678E1,1.4735149E1,2.5473766E1,4.0533936E1,1.481562E1,2.729541E1,3.5958603E1,5.167671E0,0E0,2.8844193E1,1.2230469E1,8.42984E1,0E0,0E0,0E0,0E0,0E0,0E0,0E0,0E0,0E0,0E0,0E0,0E0,0E0,0E0,0E0,0E0,0E0,0E0,0E0,0E0,0E0,0E0,0E0,0E0,0E0,0E0,0E0,0E0,0E0,0E0,0E0,0E0,0E0,0E0,0E0,0E0,0E0,0E0,0E0,0E0,0E0],"parents":[2147483647,0,0,1,1,2,2,3,3,4,4,5,5,6,6,7,7,8,8,9,9,10,10,11,11,12,12,13,13,14,14,15,15,16,16,17,17,19,19,22,22,23,23,24,24,25,25,26,26,27,27,28,28,29,29,30,30,31,31,32,32,33,33,34,34,37,37,38,38,41,41,42,42,43,43,44,44,45,45,46,46,47,47,48,48,49,49,50,50,51,51,53,53,54,54,55,55],"right_children":[2,4,6,8,10,12,14,16,18,20,22,24,26,28,30,32,34,36,-1,38,-1,-1,40,42,44,46,48,50,52,54,56,58,60,62,64,-1,-1,66,68,-1,-1,70,72,74,76,78,80,82,84,86,88,90,-1,92,94,96,-1,-1,-1,-1,-1,-1,-1,-1,-1,-1,-1,-1,-1,-1,-1,-1,-1,-1,-1,-1,-1,-1,-1,-1,-1,-1,-1,-1,-1,-1,-1,-1,-1,-1,-1,-1,-1,-1,-1,-1,-1],"split_conditions":[1.3466785E-2,3.242805E-2,5.3664064E-3,1.5943553E-1,6.4469175E-3,5.8940207E-3,1.4949461E-2,5.6265675E-2,1.6218906E-2,1.0400172E-2,5.3687636E-2,5.6827776E-3,4.988162E-3,7.195574E-2,1.3485176E-2,1.0500508E-2,8.331981E-2,9.26017E-2,-3.946778E-1,2.1776693E-2,-4.6729845E-1,-4.6422663E-1,2.8453046E-2,5.434133E-3,1.4423238E-2,1.0085241E-2,1.4423238E-2,1.704468E-2,5.434133E-3,1.1422054E-2,6.3913073E-3,1.908254E-2,4.3808453E-2,3.0171734E-1,3.3208434E-2,4.3805227E-1,1.4612745E-2,4.3914165E-2,4.198289E-3,5.1059965E-3,-2.7250636E-1,3.8095195E-2,6.304174E-3,1.5997095E-1,1.1620653E-2,7.579968E-2,5.6827776E-3,6.913008E-3,5.6827776E-3,5.3920583E-3,1.0215348E-2,4.298625E-3,-3.7395918E-1,1.3155559E-2,9.70519E-2,5.434133E-3,-5.77437E-1,-4.5676467E-1,3.4289372E-1,4.5514104E-1,-1.5095416E-1,-4.4862726E-1,1.6758125E-1,5.1938854E-3,-4.1924742E-1,-1.9552755E-1,2.733641E-1,4.717234E-1,6.7222185E-2,3.8910586E-1,-5.9999996E-1,-4.5841077E-1,1.9552608E-1,-4.1620308E-1,-2.4373675E-2,-2.9901806E-1,3.651942E-1,-4.4923046E-1,3.2575008E-1,3.0740875E-1,-3.8549212E-1,-5.4809976E-1,2.6090974E-1,4.3703517E-1,-2.7203077E-1,-5.627017E-1,-4.617704E-1,-3.1653097E-1,4.3672788E-1,4.5622507E-1,-4.2542685E-2,-3.6232215E-1,3.5560846E-1,-4.2814252E-1,1.9517936E-2,4.1511768E-1,-4.2361194E-1],"split_indices":[97,1154,1150,108,366,170,610,448,304,942,17,885,947,108,557,1036,112,139,0,7,0,0,575,1487,612,112,612,1154,1487,369,876,1292,309,352,125,0,0,10,416,0,0,626,948,497,610,304,885,805,885,862,612,263,0,777,60,1487,0,0,0,0,0,0,0,0,0,0,0,0,0,0,0,0,0,0,0,0,0,0,0,0,0,0,0,0,0,0,0,0,0,0,0,0,0,0,0,0,0],"split_type":[0,0,0,0,0,0,0,0,0,0,0,0,0,0,0,0,0,0,0,0,0,0,0,0,0,0,0,0,0,0,0,0,0,0,0,0,0,0,0,0,0,0,0,0,0,0,0,0,0,0,0,0,0,0,0,0,0,0,0,0,0,0,0,0,0,0,0,0,0,0,0,0,0,0,0,0,0,0,0,0,0,0,0,0,0,0,0,0,0,0,0,0,0,0,0,0,0],"sum_hessian":[9.3970625E3,2.8370251E3,6.560037E3,2.6764856E3,1.6053969E2,4.830943E3,1.7290946E3,2.6451477E3,3.133785E1,1.14217804E2,4.632189E1,4.5713184E3,2.596241E2,1.1735033E3,5.555913E2,2.0451599E3,5.999877E2,2.3681744E1,7.656107E0,1.03395744E2,1.082206E1,4.3766003E1,2.5558884E0,4.4382427E3,1.3307591E2,7.085379E1,1.8877032E2,1.1483265E3,2.5176762E1,1.06562996E2,4.4902835E2,2.0398379E3,5.322093E0,3.0798383E2,2.920038E2,2.250054E1,1.1812036E0,2.1912565E1,8.148318E1,1.1719886E0,1.3838998E0,4.3647144E3,7.352837E1,1.15420235E2,1.7655676E1,1.39520645E1,5.690173E1,1.660577E2,2.2712637E1,1.1265826E3,2.1743893E1,2.1057867E1,4.118894E0,2.1321598E1,8.52414E1,4.3550574E2,1.3522587E1,2.038452E3,1.3858812E0,4.171521E0,1.1505718E0,3.0683237E2,1.1514871E0,1.725202E2,1.19483604E2,8.58713E0,1.3325436E1,7.724157E1,4.241605E0,4.3240825E3,4.0631744E1,7.230948E1,1.2188938E0,1.0733511E2,8.085123E0,4.2854943E0,1.3370181E1,1.2046003E1,1.9060615E0,5.250618E1,4.395548E0,1.608412E2,5.216486E0,2.036637E1,2.3462675E0,4.271167E2,6.9946594E2,1.3218435E1,8.525456E0,1.9176222E1,1.8816454E0,6.4467564E0,1.4874842E1,7.9437485E1,5.803917E0,4.2520853E2,1.02972355E1],"tree_param":{"num_deleted":"0","num_feature":"1536","num_nodes":"97","size_leaf_vector":"1"}},{"base_weights":[-6.210795E-3,-1.0874317E0,4.4649938E-1,-1.1692628E0,2.3158361E-1,6.9540673E-1,-1.3428092E0,-1.205294E0,4.3613014E-1,7.745545E-1,-1.2635674E0,8.01888E-1,-1.2048713E0,-4.0402815E-1,1.5962052E-1,-1.3299127E0,-9.320935E-1,1.1666805E0,-3.8705894E-1,-3.935522E-1,9.970346E-1,5.0292227E-2,-1.3169914E0,9.6540827E-1,-5.6244E-2,-1.2780194E0,1.2959645E0,-1.3385377E0,1.2834957E-1,-1.2060472E0,-4.6370605E-1,1.2507893E0,-2.3967747E-1,1.19753E0,-9.415545E-1,-4.0261832E-1,-6.359426E-2,1.0073797E0,-1.4925046E0,-1.3284882E0,9.336259E-1,-1.3235066E0,8.9093995E-1,1.5697394E-2,5.070878E-1,-4.0459833E-1,-2.188784E-1,-2.6913273E-1,4.237576E-1,-3.6918837E-1,5.429077E-1,1.1958357E-1,-3.6954096E-1,-1.3228509E-1,4.045988E-1,3.7481716E-1,-3.4811527E-1,3.1847503E-2,-3.5745636E-1,3.1207052E-1,-6.3089883E-1,-2.4912836E-2,-4.9157032E-1,-4.3882963E-1,1.8802835E-1,3.2022455E-1,-3.2065606E-1,-4.0637252E-1,3.3013427E-1,3.775753E-1,-1.2614241E-1],"categories":[],"categories_nodes":[],"categories_segments":[],"categories_sizes":[],"default_left":[0,0,0,0,0,0,0,0,0,0,0,0,0,0,0,0,0,0,0,0,0,0,0,0,0,0,0,0,0,0,0,0,0,0,0,0,0,0,0,0,0,0,0,0,0,0,0,0,0,0,0,0,0,0,0,0,0,0,0,0,0,0,0,0,0,0,0,0,0,0,0],"id":2,"left_children":[1,3,5,7,9,11,13,15,17,19,21,23,25,-1,-1,27,29,31,-1,-1,33,-1,35,37,39,41,43,45,47,49,51,53,-1,55,57,-1,-1,59,61,63,65,67,69,-1,-1,-1,-1,-1,-1,-1,-1,-1,-1,-1,-1,-1,-1,-1,-1,-1,-1,-1,-1,-1,-1,-1,-1,-1,-1,-1,-1],"loss_changes":[4.0292007E3,2.6249146E2,2.5850767E3,1.3285303E2,1.1686576E2,1.0317678E3,5.9682617E0,7.494507E1,6.576304E1,5.0204643E1,3.1576042E0,6.7705054E2,5.1177673E1,0E0,0E0,1.9470459E1,8.981549E1,7.004856E0,0E0,0E0,3.8346367E1,0E0,7.443695E-1,4.19563E2,9.7490393E2,2.7178009E1,3.9277658E0,8.419922E0,1.4349428E1,3.512317E1,1.7372296E2,6.427128E0,0E0,1.2115547E1,2.6236773E0,0E0,0E0,4.094253E2,1.3953888E1,8.984863E1,1.17792786E2,2.0958649E1,3.427146E0,0E0,0E0,0E0,0E0,0E0,0E0,0E0,0E0,0E0,0E0,0E0,0E0,0E0,0E0,0E0,0E0,0E0,0E0,0E0,0E0,0E0,0E0,0E0,0E0,0E0,0E0,0E0,0E0],"parents":[2147483647,0,0,1,1,2,2,3,3,4,4,5,5,6,6,7,7,8,8,9,9,10,10,11,11,12,12,15,15,16,16,17,17,20,20,22,22,23,23,24,24,25,25,26,26,27,27,28,28,29,29,30,30,31,31,33,33,34,34,37,37,38,38,39,39,40,40,41,41,42,42],"right_children":[2,4,6,8,10,12,14,16,18,20,22,24,26,-1,-1,28,30,32,-1,-1,34,-1,36,38,40,42,44,46,48,50,52,54,-1,56,58,-1,-1,60,62,64,66,68,70,-1,-1,-1,-1,-1,-1,-1,-1,-1,-1,-1,-1,-1,-1,-1,-1,-1,-1,-1,-1,-1,-1,-1,-1,-1,-1,-1,-1],"split_conditions":[1.3466785E-2,2.2374704E-2,5.434133E-3,9.107097E-2,1.2636579E-2,5.599511E-3,5.6193333E-2,2.7825775E-2,9.531523E-3,5.82051E-3,2.6894322E-2,5.3664064E-3,5.6303144E-2,-4.0402815E-1,1.5962052E-1,3.224698E-2,3.4877684E-2,2.3423443E-2,-3.8705894E-1,-3.935522E-1,3.0732077E-2,5.0292227E-2,1.3482356E-1,5.5923355E-3,7.451379E-3,1.6937365E-1,1.8657194E-2,1.182433E-1,8.856865E-3,2.0499768E-2,6.851906E-3,1.0085241E-2,-2.3967747E-1,6.708838E-2,4.963092E-2,-4.0261832E-1,-6.359426E-2,4.208349E-2,4.988162E-3,2.0217212E-2,5.6827776E-3,8.67898E-2,5.539442E-3,1.5697394E-2,5.070878E-1,-4.0459833E-1,-2.188784E-1,-2.6913273E-1,4.237576E-1,-3.6918837E-1,5.429077E-1,1.1958357E-1,-3.6954096E-1,-1.3228509E-1,4.045988E-1,3.7481716E-1,-3.4811527E-1,3.1847503E-2,-3.5745636E-1,3.1207052E-1,-6.3089883E-1,-2.4912836E-2,-4.9157032E-1,-4.3882963E-1,1.8802835E-1,3.2022455E-1,-3.2065606E-1,-4.0637252E-1,3.3013427E-1,3.775753E-1,-1.2614241E-1],"split_indices":[97,612,1487,108,366,27,1123,448,329,557,612,1150,108,0,0,128,7,89,0,0,221,0,640,1369,610,201,112,410,276,1224,125,112,0,1118,112,0,0,889,947,1154,885,417,610,0,0,0,0,0,0,0,0,0,0,0,0,0,0,0,0,0,0,0,0,0,0,0,0,0,0,0,0],"split_type":[0,0,0,0,0,0,0,0,0,0,0,0,0,0,0,0,0,0,0,0,0,0,0,0,0,0,0,0,0,0,0,0,0,0,0,0,0,0,0,0,0,0,0,0,0,0,0,0,0,0,0,0,0,0,0,0,0,0,0,0,0,0,0,0,0,0,0,0,0,0,0],"sum_hessian":[8.229607E3,2.4283962E3,5.8012114E3,2.2866472E3,1.4174907E2,5.0933027E3,7.079084E2,2.2366963E3,4.9951004E1,1.0433962E2,3.740945E1,4.823593E3,2.6970996E2,7.0670074E2,1.207653E0,1.5333849E3,7.033113E2,3.53259E1,1.4625104E1,9.582211E0,9.475741E1,1.2692342E0,3.6140217E1,4.051449E3,7.7214386E2,2.6252032E2,7.189626E0,1.5244506E3,8.934349E0,4.427675E2,2.605438E2,3.4225063E1,1.1008372E0,8.6222275E1,8.535131E0,3.5128723E1,1.0114948E0,3.984008E3,6.744097E1,3.377298E2,4.3441406E2,2.5750967E2,5.010657E0,2.003534E0,5.186092E0,1.4983268E3,2.6123793E1,5.1351595E0,3.7991896E0,4.397749E2,2.9925938E0,1.22970184E2,1.3757362E2,1.6800537E0,3.254501E1,8.4826706E1,1.3955692E0,1.7549067E0,6.7802243E0,3.943023E3,4.0985123E1,6.4799585E0,6.0961014E1,3.162623E2,2.1467493E1,4.076455E2,2.6768564E1,2.5468645E2,2.823219E0,3.944995E0,1.0656617E0],"tree_param":{"num_deleted":"0","num_feature":"1536","num_nodes":"71","size_leaf_vector":"1"}},{"base_weights":[-1.0949577E-2,-9.6041965E-1,3.686689E-1,-1.039243E0,2.0288298E-1,5.715195E-1,-1.2265334E0,-1.1652956E0,-6.21954E-1,7.1715283E-1,-3.671654E-1,3.470412E-1,1.2618706E0,-3.6924717E-1,1.356835E-1,-1.1828128E0,6.884556E-1,1.5182356E-2,-1.1058253E0,-9.070909E-1,9.4476736E-1,7.8767353E-1,-3.2169837E-1,1.2733355E0,-1.4799443E0,-1.1905625E0,4.7191846E-1,-4.3804875E-1,1.2216082E0,3.6290067E-1,-1.3032291E0,-1.162523E0,9.614482E-1,-3.5743108E-1,1.5144628E-1,1.0066497E0,-3.4839758E-1,-8.269282E-2,9.5918584E-1,-1.4491562E0,6.784753E-1,1.2882662E0,-5.305181E-1,-5.2362853E-1,-9.3192264E-2,-3.6511603E-1,-2.1074793E-1,4.1273946E-1,-2.7706042E-1,-2.7189025E-1,1.8348792E-1,3.9312345E-1,6.93532E-2,1.9470467E-1,-3.722487E-1,-4.0291825E-1,2.078556E-2,-3.5461393E-1,1.05882855E-2,7.876004E-2,3.136618E-1,3.179999E-1,-2.600459E-1,-4.9601486E-1,2.0496131E-1,3.0220205E-1,-6.0424733E-1,-4.597796E-1,2.8764302E-1,-4.7796476E-1,2.8779125E-1,-5.1035564E-2,3.8797757E-1,-2.89199E-1,3.016277E-1],"categories":[],"categories_nodes":[],"categories_segments":[],"categories_sizes":[],"default_left":[0,0,0,0,0,0,0,0,0,0,0,0,0,0,0,0,0,0,0,0,0,0,0,0,0,0,0,0,0,0,0,0,0,0,0,0,0,0,0,0,0,0,0,0,0,0,0,0,0,0,0,0,0,0,0,0,0,0,0,0,0,0,0,0,0,0,0,0,0,0,0,0,0,0,0],"id":3,"left_children":[1,3,5,7,9,11,13,15,17,19,-1,21,23,-1,-1,25,27,29,31,33,35,37,39,41,43,45,47,49,51,53,55,57,59,-1,-1,61,-1,63,65,67,69,71,73,-1,-1,-1,-1,-1,-1,-1,-1,-1,-1,-1,-1,-1,-1,-1,-1,-1,-1,-1,-1,-1,-1,-1,-1,-1,-1,-1,-1,-1,-1,-1,-1],"loss_changes":[2.5333472E3,1.842909E2,1.6254536E3,9.817883E1,9.496596E1,6.899918E2,4.63916E0,4.7669678E1,1.3516017E2,3.5936787E1,0E0,9.913512E2,3.6237427E1,0E0,0E0,1.889685E1,9.027296E0,8.766775E1,3.0321808E1,5.488513E0,1.2079498E1,3.0278638E2,1.5082455E3,3.000879E1,1.0140352E0,1.7548706E1,1.0580486E1,3.1486564E0,5.643921E-1,7.02241E1,2.2750397E0,5.72348E0,1.4858437E-1,0E0,0E0,9.100693E0,0E0,4.0380978E2,2.4458386E2,1.2778296E2,4.538271E2,8.084595E0,7.3919954E0,0E0,0E0,0E0,0E0,0E0,0E0,0E0,0E0,0E0,0E0,0E0,0E0,0E0,0E0,0E0,0E0,0E0,0E0,0E0,0E0,0E0,0E0,0E0,0E0,0E0,0E0,0E0,0E0,0E0,0E0,0E0,0E0],"parents":[2147483647,0,0,1,1,2,2,3,3,4,4,5,5,6,6,7,7,8,8,9,9,11,11,12,12,15,15,16,16,17,17,18,18,19,19,20,20,21,21,22,22,23,23,24,24,25,25,26,26,27,27,28,28,29,29,30,30,31,31,32,32,35,35,37,37,38,38,39,39,40,40,41,41,42,42],"right_children":[2,4,6,8,10,12,14,16,18,20,-1,22,24,-1,-1,26,28,30,32,34,36,38,40,42,44,46,48,50,52,54,56,58,60,-1,-1,62,-1,64,66,68,70,72,74,-1,-1,-1,-1,-1,-1,-1,-1,-1,-1,-1,-1,-1,-1,-1,-1,-1,-1,-1,-1,-1,-1,-1,-1,-1,-1,-1,-1,-1,-1,-1,-1],"split_conditions":[1.3466785E-2,1.2506981E-2,5.434133E-3,3.3624087E-2,2.3423443E-2,1.0215348E-2,5.6193333E-2,3.224698E-2,6.851906E-3,5.608345E-3,-3.671654E-1,5.784489E-3,4.655625E-3,-3.6924717E-1,1.356835E-1,5.7481218E-2,8.856865E-3,4.198289E-3,9.767744E-2,6.8211844E-3,1.2863608E-1,6.4469175E-3,6.68346E-3,3.8452628E-3,3.6217514E-2,9.944239E-2,2.3423443E-2,1.9058077E-2,4.0394835E-2,1.0400172E-2,1.0232536E-1,1.6794814E-1,4.5472868E-2,-3.5743108E-1,1.5144628E-1,1.625612E-2,-3.4839758E-1,1.0562417E-2,1.0615523E-2,5.5473365E-2,5.448016E-3,9.834776E-3,4.3136906E-2,-5.2362853E-1,-9.3192264E-2,-3.6511603E-1,-2.1074793E-1,4.1273946E-1,-2.7706042E-1,-2.7189025E-1,1.8348792E-1,3.9312345E-1,6.93532E-2,1.9470467E-1,-3.722487E-1,-4.0291825E-1,2.078556E-2,-3.5461393E-1,1.05882855E-2,7.876004E-2,3.136618E-1,3.179999E-1,-2.600459E-1,-4.9601486E-1,2.0496131E-1,3.0220205E-1,-6.0424733E-1,-4.597796E-1,2.8764302E-1,-4.7796476E-1,2.8779125E-1,-5.1035564E-2,3.8797757E-1,-2.89199E-1,3.016277E-1],"split_indices":[97,1154,1487,557,89,612,1123,128,125,448,0,369,1407,0,0,836,276,416,108,136,252,366,862,1398,366,610,89,262,377,942,19,443,557,0,0,560,0,221,1249,108,227,10,239,0,0,0,0,0,0,0,0,0,0,0,0,0,0,0,0,0,0,0,0,0,0,0,0,0,0,0,0,0,0,0,0],"split_type":[0,0,0,0,0,0,0,0,0,0,0,0,0,0,0,0,0,0,0,0,0,0,0,0,0,0,0,0,0,0,0,0,0,0,0,0,0,0,0,0,0,0,0,0,0,0,0,0,0,0,0,0,0,0,0,0,0,0,0,0,0,0,0,0,0,0,0,0,0,0,0,0,0,0,0],"sum_hessian":[7.026573E3,2.0065153E3,5.020058E3,1.8792848E3,1.2723042E2,4.454281E3,5.657776E2,1.4419232E3,4.373616E2,9.388683E1,3.334359E1,3.3624355E3,1.091845E3,5.646015E2,1.1760935E0,1.4287837E3,1.3139512E1,1.8920067E2,2.4816093E2,1.1172848E1,8.271399E1,2.0267998E3,1.3356357E3,1.0878318E3,4.0131383E0,1.4224026E3,6.3810596E0,4.278275E0,8.861237E0,1.5028831E2,3.8912354E1,2.4196243E2,6.1984897E0,9.429906E0,1.7429425E0,8.086014E1,1.8538462E0,3.337336E2,1.6930663E3,6.276551E2,7.0798065E2,1.079185E3,8.646713E0,2.869032E0,1.1441064E0,1.347757E3,7.464569E1,3.88118E0,2.4998796E0,3.0529613E0,1.2253137E0,7.835614E0,1.025623E0,1.2804045E2,2.2247866E1,3.7835785E1,1.0765699E0,2.3809488E2,3.8675663E0,1.1083733E0,5.0901165E0,7.9043465E1,1.8166764E0,1.090129E2,2.247207E2,1.6667341E3,2.6332085E1,6.06985E2,2.0670113E1,7.737804E1,6.306026E2,3.5689046E0,1.0756162E3,7.0339475E0,1.612766E0],"tree_param":{"num_deleted":"0","num_feature":"1536","num_nodes":"75","size_leaf_vector":"1"}},{"base_weights":[-1.19176805E-2,-8.6595654E-1,3.187745E-1,-1.1161097E0,-4.8671E-1,4.9089813E-1,-1.1537083E0,-1.1421002E0,2.6819947E-1,-1.3816018E-1,-1.107715E0,2.916908E-1,1.1542944E0,-3.4769884E-1,1.0629813E-1,-1.1594727E0,-3.0746412E-1,8.0270517E-1,-8.1049913E-1,1.896926E-1,-1.127473E0,-1.1758685E0,-3.0689898E-1,4.565919E-1,-1.0147104E0,1.1661265E0,-1.2056501E0,-1.1607825E0,-1.8177158E-3,-7.3876846E-1,1.042502E0,1.1104436E0,-2.3837481E-1,-2.9480258E-1,3.1436377E-3,-7.102241E-1,7.014707E-1,-1.1399082E0,-5.545035E-2,-1.1878573E0,9.049016E-2,-6.079716E-1,4.040355E-1,5.3345245E-1,-1.1563646E0,-1.361042E0,-4.402616E-2,1.1812879E0,-3.949916E-1,-4.29916E-1,-6.321996E-2,-3.4886733E-1,-1.3374437E-1,-2.6509184E-1,1.8528716E-1,4.9443102E-1,-1.1234865E-1,3.979924E-1,-1.6471016E-1,-2.6196623E-1,3.3591372E-1,2.7045125E-1,-2.7940938E-1,-3.4481692E-1,-2.8164985E-2,-3.59378E-1,1.3295089E-1,-2.7302366E-1,3.0562955E-1,6.632581E-2,2.6226622E-1,-4.36143E-1,2.3944725E-1,-1.22186005E-1,-4.6633327E-1,-4.603194E-1,1.13901064E-1,3.559902E-1,-1.7619936E-1,-2.7420992E-1,2.4934122E-1],"categories":[],"categories_nodes":[],"categories_segments":[],"categories_sizes":[],"default_left":[0,0,0,0,0,0,0,0,0,0,0,0,0,0,0,0,0,0,0,0,0,0,0,0,0,0,0,0,0,0,0,0,0,0,0,0,0,0,0,0,0,0,0,0,0,0,0,0,0,0,0,0,0,0,0,0,0,0,0,0,0,0,0,0,0,0,0,0,0,0,0,0,0,0,0,0,0,0,0,0,0],"id":4,"left_children":[1,3,5,7,9,11,13,15,17,19,21,23,25,-1,-1,27,29,31,33,35,37,39,41,43,45,47,49,51,-1,53,55,57,-1,-1,-1,59,61,63,-1,65,-1,67,-1,69,71,73,75,77,79,-1,-1,-1,-1,-1,-1,-1,-1,-1,-1,-1,-1,-1,-1,-1,-1,-1,-1,-1,-1,-1,-1,-1,-1,-1,-1,-1,-1,-1,-1,-1,-1],"loss_changes":[1.6543633E3,1.545741E2,1.070805E3,3.5725098E1,1.4089117E2,4.993952E2,3.9371948E0,1.3657227E1,1.1577754E1,1.35957E2,1.2416626E1,6.272508E2,2.5781006E1,0E0,0E0,1.4227295E0,1.3036638E1,7.3584766E0,9.6824217E-1,1.4566376E2,1.012085E0,4.173706E0,1.0634314E1,3.20976E2,1.0967001E2,2.1036987E1,7.945175E-1,9.067383E-1,0E0,3.7981825E0,5.350578E0,4.8413057E0,0E0,0E0,0E0,3.5208755E1,6.6631516E1,9.112549E-1,0E0,4.043274E0,0E0,9.462229E0,0E0,2.6243262E2,6.967566E1,4.37359E1,5.5435913E1,8.837769E0,6.55661E0,0E0,0E0,0E0,0E0,0E0,0E0,0E0,0E0,0E0,0E0,0E0,0E0,0E0,0E0,0E0,0E0,0E0,0E0,0E0,0E0,0E0,0E0,0E0,0E0,0E0,0E0,0E0,0E0,0E0,0E0,0E0,0E0],"parents":[2147483647,0,0,1,1,2,2,3,3,4,4,5,5,6,6,7,7,8,8,9,9,10,10,11,11,12,12,15,15,16,16,17,17,18,18,19,19,20,20,21,21,22,22,23,23,24,24,25,25,26,26,27,27,29,29,30,30,31,31,35,35,36,36,37,37,39,39,41,41,43,43,44,44,45,45,46,46,47,47,48,48],"right_children":[2,4,6,8,10,12,14,16,18,20,22,24,26,-1,-1,28,30,32,34,36,38,40,42,44,46,48,50,52,-1,54,56,58,-1,-1,-1,60,62,64,-1,66,-1,68,-1,70,72,74,76,78,80,-1,-1,-1,-1,-1,-1,-1,-1,-1,-1,-1,-1,-1,-1,-1,-1,-1,-1,-1,-1,-1,-1,-1,-1,-1,-1,-1,-1,-1,-1,-1,-1],"split_conditions":[1.3466785E-2,6.9820127E-3,5.434133E-3,2.2535162E-2,5.3664064E-3,1.0215348E-2,1.9449277E-1,1.182433E-1,9.160498E-3,1.625612E-2,8.0752656E-2,4.198289E-3,4.655625E-3,-3.4769884E-1,1.0629813E-1,1.8316245E-1,1.080197E-1,1.6801305E-2,2.256498E-2,8.331981E-2,9.0935215E-2,2.6445913E-1,8.510446E-3,9.090098E-3,5.3920583E-3,3.8452628E-3,6.6116056E-3,2.4967341E-1,-1.8177158E-3,2.1099885E-1,1.413306E-1,5.3664064E-3,-2.3837481E-1,-2.9480258E-1,3.1436377E-3,8.950493E-3,4.198289E-3,1.2705489E-1,-5.545035E-2,9.255042E-2,9.049016E-2,6.666252E-3,4.040355E-1,9.377561E-3,3.0927818E-2,5.784489E-3,5.448016E-3,4.769467E-3,4.0764797E-2,-4.29916E-1,-6.321996E-2,-3.4886733E-1,-1.3374437E-1,-2.6509184E-1,1.8528716E-1,4.9443102E-1,-1.1234865E-1,3.979924E-1,-1.6471016E-1,-2.6196623E-1,3.3591372E-1,2.7045125E-1,-2.7940938E-1,-3.4481692E-1,-2.8164985E-2,-3.59378E-1,1.3295089E-1,-2.7302366E-1,3.0562955E-1,6.632581E-2,2.6226622E-1,-4.36143E-1,2.3944725E-1,-1.22186005E-1,-4.6633327E-1,-4.603194E-1,1.13901064E-1,3.559902E-1,-1.7619936E-1,-2.7420992E-1,2.4934122E-1],"split_indices":[97,448,1487,114,1150,612,948,410,862,560,610,416,1407,0,0,247,262,304,136,112,525,1195,1478,95,862,1398,469,848,0,23,221,1150,0,0,0,108,416,232,0,108,0,1468,0,227,108,369,227,1020,610,0,0,0,0,0,0,0,0,0,0,0,0,0,0,0,0,0,0,0,0,0,0,0,0,0,0,0,0,0,0,0,0],"split_type":[0,0,0,0,0,0,0,0,0,0,0,0,0,0,0,0,0,0,0,0,0,0,0,0,0,0,0,0,0,0,0,0,0,0,0,0,0,0,0,0,0,0,0,0,0,0,0,0,0,0,0,0,0,0,0,0,0,0,0,0,0,0,0,0,0,0,0,0,0,0,0,0,0,0,0,0,0,0,0,0,0],"sum_hessian":[5.855752E3,1.6340553E3,4.2216963E3,9.834338E2,6.506215E2,3.780453E3,4.4124365E2,9.6548175E2,1.7951996E1,4.1750952E2,2.33112E2,2.9085125E3,8.719403E2,4.3993253E2,1.3111087E0,9.4541425E2,2.0067495E1,1.2175015E1,5.776981E0,3.1419522E2,1.033143E2,2.1439735E2,1.8714647E1,2.583109E3,3.2540363E2,8.680938E2,3.846514E0,9.443356E2,1.0786657E0,1.5551617E1,4.515878E0,1.0463818E1,1.7111971E0,4.6126547E0,1.1643261E0,1.1376382E2,2.0043141E2,1.0176258E2,1.5517166E0,2.1286615E2,1.5311931E0,1.6367165E1,2.3474817E0,2.466256E3,1.1685272E2,2.3953683E2,8.586679E1,8.5998505E2,8.108761E0,2.7724538E0,1.0740602E0,9.40934E2,3.4015825E0,1.4365798E1,1.1858182E0,3.0494838E0,1.4663944E0,9.435165E0,1.0286524E0,1.0493944E2,8.824384E0,1.7895596E2,2.147544E1,1.00750534E2,1.0120488E0,2.1182397E2,1.0421838E0,1.4175188E1,2.1919765E0,1.2876113E3,1.1786449E3,1.0164087E2,1.5211851E1,4.0907745E1,1.9862909E2,1.842711E1,6.7439674E1,8.5772144E2,2.2636106E0,5.875921E0,2.2328405E0],"tree_param":{"num_deleted":"0","num_feature":"1536","num_nodes":"81","size_leaf_vector":"1"}},{"base_weights":[-1.4679354E-2,-7.912157E-1,2.6268372E-1,-4.6041727E-1,-1.0972705E0,4.0110317E-1,-1.1047709E0,-8.7217915E-1,-3.5961196E-2,-1.1091152E0,2.9443502E-1,4.8430604E-1,-1.0579537E0,-3.3323365E-1,1.1718081E-1,-9.3366206E-1,7.7366686E-1,2.4460517E-1,-1.0516597E0,-1.1118582E0,-2.8661335E-1,6.853105E-1,-1.9718423E-1,5.4219574E-1,-1.4929564E0,-1.1238179E0,9.623872E-1,-9.497743E-1,4.8557475E-1,1.0622289E0,-2.0991874E-1,-4.6653983E-1,7.174345E-1,-1.0930018E0,1.9464107E-1,-1.1147603E0,-3.146737E-1,-2.4247274E-1,1.5838592E-1,1.1488032E0,-1.548981E-1,5.756553E-1,-2.4888802E0,-1.5368676E0,2.9450768E-1,-1.1628269E0,3.0270526E-1,3.2107794E-1,6.303316E-2,-2.9259795E-1,2.0014848E-1,-1.8860271E-2,3.5749322E-1,-2.3989679E-1,2.873821E-2,2.979858E-1,-1.929256E-1,-3.372836E-1,9.975865E-2,-3.3486518E-1,-2.0776063E-2,1.3008942E-1,-2.1906644E-1,1.09608345E-1,3.9459503E-1,-1.721202E-2,2.1416636E-1,2.0087087E-1,-8.406084E-1,-5.439889E-1,-2.9655123E-1,-3.6341292E-1,-2.1540035E-2,-2.758918E-1,3.065441E-1],"categories":[],"categories_nodes":[],"categories_segments":[],"categories_sizes":[],"default_left":[0,0,0,0,0,0,0,0,0,0,0,0,0,0,0,0,0,0,0,0,0,0,0,0,0,0,0,0,0,0,0,0,0,0,0,0,0,0,0,0,0,0,0,0,0,0,0,0,0,0,0,0,0,0,0,0,0,0,0,0,0,0,0,0,0,0,0,0,0,0,0,0,0,0,0],"id":5,"left_children":[1,3,5,7,9,11,13,15,17,19,21,23,25,-1,-1,27,29,31,33,35,37,39,-1,41,43,45,47,49,-1,51,-1,53,55,57,-1,59,61,-1,-1,63,-1,65,67,69,-1,71,73,-1,-1,-1,-1,-1,-1,-1,-1,-1,-1,-1,-1,-1,-1,-1,-1,-1,-1,-1,-1,-1,-1,-1,-1,-1,-1,-1,-1],"loss_changes":[1.0804845E3,1.3316016E2,7.0010065E2,1.1116037E2,1.1619141E1,4.0808508E2,3.488739E0,3.339563E1,8.982758E1,1.2142944E0,2.8950438E0,3.6444714E2,2.5225082E1,0E0,0E0,1.4355621E1,5.9193945E0,8.342031E1,5.505028E0,1.2151489E0,1.9587939E0,3.4602518E0,0E0,3.1453784E2,1.1357361E1,1.0155441E1,2.836876E-1,1.347464E1,0E0,1.6150703E0,0E0,1.8674927E1,5.648716E1,3.3599014E0,0E0,9.494629E-1,1.5133411E0,0E0,0E0,4.4511795E-2,0E0,2.6731384E2,3.540088E1,1.1765564E1,0E0,9.007095E0,5.7589874E0,0E0,0E0,0E0,0E0,0E0,0E0,0E0,0E0,0E0,0E0,0E0,0E0,0E0,0E0,0E0,0E0,0E0,0E0,0E0,0E0,0E0,0E0,0E0,0E0,0E0,0E0,0E0,0E0],"parents":[2147483647,0,0,1,1,2,2,3,3,4,4,5,5,6,6,7,7,8,8,9,9,10,10,11,11,12,12,15,15,16,16,17,17,18,18,19,19,20,20,21,21,23,23,24,24,25,25,26,26,27,27,29,29,31,31,32,32,33,33,35,35,36,36,39,39,41,41,42,42,43,43,45,45,46,46],"right_children":[2,4,6,8,10,12,14,16,18,20,22,24,26,-1,-1,28,30,32,34,36,38,40,-1,42,44,46,48,50,-1,52,-1,54,56,58,-1,60,62,-1,-1,64,-1,66,68,70,-1,72,74,-1,-1,-1,-1,-1,-1,-1,-1,-1,-1,-1,-1,-1,-1,-1,-1,-1,-1,-1,-1,-1,-1,-1,-1,-1,-1,-1,-1],"split_conditions":[1.3466785E-2,1.2636579E-2,5.434133E-3,8.331981E-2,1.2407483E-1,5.6827776E-3,5.6193333E-2,9.13581E-3,1.4150192E-2,7.290577E-2,9.531523E-3,6.9493954E-3,1.441777E-2,-3.3323365E-1,1.1718081E-1,6.2864274E-2,9.531523E-3,2.0699883E-2,1.4914985E-1,2.7705443E-1,6.1590313E-3,2.0916449E-2,-1.9718423E-1,6.3913073E-3,1.4642397E-2,3.178553E-2,2.0843466E-1,2.2535162E-2,4.8557475E-1,1.0294493E-2,-2.0991874E-1,3.0626778E-2,5.648295E-2,1.6169204E-1,1.9464107E-1,2.7087066E-1,8.228911E-3,-2.4247274E-1,1.5838592E-1,6.161097E-3,-1.548981E-1,6.4469175E-3,5.3920583E-3,9.040117E-3,2.9450768E-1,3.2347236E-2,5.2579283E-3,3.2107794E-1,6.303316E-2,-2.9259795E-1,2.0014848E-1,-1.8860271E-2,3.5749322E-1,-2.3989679E-1,2.873821E-2,2.979858E-1,-1.929256E-1,-3.372836E-1,9.975865E-2,-3.3486518E-1,-2.0776063E-2,1.3008942E-1,-2.1906644E-1,1.09608345E-1,3.9459503E-1,-1.721202E-2,2.1416636E-1,2.0087087E-1,-8.406084E-1,-5.439889E-1,-2.9655123E-1,-3.6341292E-1,-2.1540035E-2,-2.758918E-1,3.065441E-1],"split_indices":[97,366,1487,112,276,885,1123,132,221,128,329,175,805,0,0,1224,329,7,410,92,293,227,0,876,297,804,97,114,0,90,0,610,1150,211,0,732,221,0,0,7,0,366,862,1486,0,612,304,0,0,0,0,0,0,0,0,0,0,0,0,0,0,0,0,0,0,0,0,0,0,0,0,0,0,0,0],"split_type":[0,0,0,0,0,0,0,0,0,0,0,0,0,0,0,0,0,0,0,0,0,0,0,0,0,0,0,0,0,0,0,0,0,0,0,0,0,0,0,0,0,0,0,0,0,0,0,0,0,0,0,0,0,0,0,0,0,0,0,0,0,0,0,0,0,0,0,0,0,0,0,0,0,0,0],"sum_hessian":[5.014619E3,1.3192495E3,3.6953699E3,6.351999E2,6.840496E2,3.3563342E3,3.390355E2,3.2188586E2,3.1331406E2,6.784782E2,5.5714703E0,3.1758965E3,1.804377E2,3.37935E2,1.1005026E0,3.107115E2,1.1174352E1,2.4609454E2,6.7219505E1,6.7587244E2,2.605729E0,4.1478457E0,1.4236248E0,3.0862637E3,8.963298E1,1.7517079E2,5.2669106E0,3.0938623E2,1.3252821E0,9.577647E0,1.596705E0,9.828508E1,1.4780946E2,6.597279E1,1.2467159E0,6.7302405E2,2.8484294E0,1.5932274E0,1.0125018E0,3.0250134E0,1.1228323E0,3.0533682E3,3.2895508E1,8.844257E1,1.1904092E0,1.7068808E2,4.4827046E0,4.2366953E0,1.030215E0,3.0496375E2,4.422476E0,1.0410749E0,8.5365715E0,6.1457043E1,3.6828037E1,1.2311689E2,2.4692577E1,6.476319E1,1.2096043E0,6.7201984E2,1.004191E0,1.0014795E0,1.8469498E0,1.0901352E0,1.9348781E0,5.4735754E2,2.5060105E3,2.8645983E0,3.003091E1,5.7267464E1,3.1175108E1,1.6331064E2,7.3774433E0,1.5570911E0,2.9256134E0],"tree_param":{"num_deleted":"0","num_feature":"1536","num_nodes":"75","size_leaf_vector":"1"}},{"base_weights":[-1.8537354E-2,-1.971626E-1,9.461747E-1,-5.9320736E-1,3.7406692E-1,9.9374354E-1,-3.3622134E-1,-9.9731255E-1,-7.986152E-2,-7.4909765E-1,5.305371E-1,-4.8830643E-1,1.0338682E0,-1.0748442E0,3.0865633E-1,1.5138981E-1,-3.29107E-1,-1.3332715E0,1.1538787E0,7.872872E-1,-2.737845E-1,-7.66799E-1,4.0641627E-1,1.0421349E0,-5.236169E-1,-1.1048535E0,1.03668466E-1,-3.622458E-1,5.8516365E-1,-1.0616943E0,4.4841963E-1,-1.4188845E0,8.868267E-1,-4.167156E-2,3.5638168E-1,8.3593655E-1,-1.8789542E0,-8.6548483E-1,3.8705802E-1,-1.0508016E0,3.0909136E-1,2.739202E-1,-2.0485203E-1,1.052213E0,-3.1281102E-1,-2.9207382E-1,-3.8143787E-1,1.7472789E-1,-3.711213E-1,2.7691326E-1,-1.541802E-1,-3.512903E-1,-3.600092E-2,1.849196E-1,-3.5088217E-1,-4.4440383E-1,1.3093269E-2,3.0344546E-1,5.2952804E-2,2.6470205E-1,-3.2082698E-1,-2.9832688E-1,-9.1795045E-1,-2.984363E-1,4.1934916E-1,-3.7284842E-1,1.7862357E-1,-3.53561E-1,-1.734077E-2,2.3614036E-1,-1.444549E-1,3.1801945E-1,-2.4335514E-1],"categories":[],"categories_nodes":[],"categories_segments":[],"categories_sizes":[],"default_left":[0,0,0,0,0,0,0,0,0,0,0,0,0,0,0,0,0,0,0,0,0,0,0,0,0,0,0,0,0,0,0,0,0,0,0,0,0,0,0,0,0,0,0,0,0,0,0,0,0,0,0,0,0,0,0,0,0,0,0,0,0,0,0,0,0,0,0,0,0,0,0,0,0],"id":6,"left_children":[1,3,5,7,9,11,-1,13,15,17,19,21,23,25,27,29,-1,31,33,35,37,39,41,43,-1,45,47,-1,49,51,53,55,57,-1,-1,59,61,63,65,67,69,-1,-1,71,-1,-1,-1,-1,-1,-1,-1,-1,-1,-1,-1,-1,-1,-1,-1,-1,-1,-1,-1,-1,-1,-1,-1,-1,-1,-1,-1,-1,-1],"loss_changes":[7.506234E2,8.3169775E2,6.80246E1,4.5025732E2,2.6496783E2,4.0095337E1,0E0,1.2331372E2,2.2533704E2,2.0663783E2,2.7321164E2,4.8537374E0,1.6719055E1,4.0670532E1,2.956715E1,2.8182794E2,0E0,2.8177261E1,2.0967216E0,1.3158447E2,1.2570334E2,4.67836E0,3.3721488E0,1.4696228E1,0E0,2.3221802E1,1.9585274E1,0E0,2.2346848E1,1.5694199E1,1.713949E2,1.255722E1,3.4159708E-1,0E0,0E0,8.80387E1,1.6039879E1,5.0985725E1,5.2409348E1,1.3905125E0,1.7956653E0,0E0,0E0,1.0291382E1,0E0,0E0,0E0,0E0,0E0,0E0,0E0,0E0,0E0,0E0,0E0,0E0,0E0,0E0,0E0,0E0,0E0,0E0,0E0,0E0,0E0,0E0,0E0,0E0,0E0,0E0,0E0,0E0,0E0],"parents":[2147483647,0,0,1,1,2,2,3,3,4,4,5,5,7,7,8,8,9,9,10,10,11,11,12,12,13,13,14,14,15,15,17,17,18,18,19,19,20,20,21,21,22,22,23,23,25,25,26,26,28,28,29,29,30,30,31,31,32,32,35,35,36,36,37,37,38,38,39,39,40,40,43,43],"right_children":[2,4,6,8,10,12,-1,14,16,18,20,22,24,26,28,30,-1,32,34,36,38,40,42,44,-1,46,48,-1,50,52,54,56,58,-1,-1,60,62,64,66,68,70,-1,-1,72,-1,-1,-1,-1,-1,-1,-1,-1,-1,-1,-1,-1,-1,-1,-1,-1,-1,-1,-1,-1,-1,-1,-1,-1,-1,-1,-1,-1,-1],"split_conditions":[1.0215348E-2,1.5011723E-2,2.3423443E-2,5.448016E-3,6.4469175E-3,5.82051E-3,-3.3622134E-1,5.7588834E-2,5.434133E-3,8.9512495E-3,4.988162E-3,1.4972116E-1,4.386834E-3,1.6081259E-2,5.82051E-3,5.3920583E-3,-3.29107E-1,5.711366E-2,3.6307562E-2,2.3423443E-2,1.54985245E-2,8.0244936E-2,7.482462E-3,5.434133E-3,-5.236169E-1,3.0968238E-2,2.2873476E-2,-3.622458E-1,3.355419E-2,2.88766E-2,2.3423443E-2,5.539442E-3,1.7031157E-2,-4.167156E-2,3.5638168E-1,6.557854E-3,1.3466785E-2,4.2970635E-2,1.3221156E-2,1.1512554E-2,4.6514284E-2,2.739202E-1,-2.0485203E-1,1.0400172E-2,-3.1281102E-1,-2.9207382E-1,-3.8143787E-1,1.7472789E-1,-3.711213E-1,2.7691326E-1,-1.541802E-1,-3.512903E-1,-3.600092E-2,1.849196E-1,-3.5088217E-1,-4.4440383E-1,1.3093269E-2,3.0344546E-1,5.2952804E-2,2.6470205E-1,-3.2082698E-1,-2.9832688E-1,-9.1795045E-1,-2.984363E-1,4.1934916E-1,-3.7284842E-1,1.7862357E-1,-3.53561E-1,-1.734077E-2,2.3614036E-1,-1.444549E-1,3.1801945E-1,-2.4335514E-1],"split_indices":[612,201,89,227,366,557,0,668,1487,290,947,97,401,108,557,862,0,276,476,89,610,114,463,1487,0,97,304,0,947,668,89,610,304,0,0,441,97,538,227,211,15,0,0,942,0,0,0,0,0,0,0,0,0,0,0,0,0,0,0,0,0,0,0,0,0,0,0,0,0,0,0,0,0],"split_type":[0,0,0,0,0,0,0,0,0,0,0,0,0,0,0,0,0,0,0,0,0,0,0,0,0,0,0,0,0,0,0,0,0,0,0,0,0,0,0,0,0,0,0,0,0,0,0,0,0,0,0,0,0,0,0,0,0,0,0,0,0,0,0,0,0,0,0,0,0,0,0,0,0],"sum_hessian":[4.353854E3,3.6743164E3,6.795376E2,2.1698665E3,1.50445E3,6.647578E2,1.4779828E1,1.2135884E3,9.562781E2,1.8349684E2,1.3209531E3,1.722865E1,6.475291E2,1.1457456E3,6.784277E1,7.798342E2,1.7644385E2,1.4062675E2,4.2870087E1,1.00133496E3,3.1961816E2,1.3248027E1,3.980622E0,6.46232E2,1.2971371E0,1.1173562E3,2.8389444E1,9.945081E0,5.7897694E1,1.5288208E2,6.2695215E2,1.3575264E2,4.874106E0,1.0214614E0,4.1848625E1,9.8406573E2,1.7269201E1,1.684674E2,1.5115077E2,1.0499733E1,2.7482944E0,2.8272989E0,1.1533233E0,6.436161E2,2.6159084E0,6.28771E2,4.8858524E2,2.1336203E1,7.053242E0,4.440657E1,1.3491123E1,1.3676811E2,1.611397E1,5.6854626E2,5.8405834E1,1.3018007E2,5.572574E0,3.7857332E0,1.0883725E0,9.6119354E2,2.287223E1,1.0926716E1,6.3424854E0,1.598932E2,8.5742E0,1.6569315E1,1.3458145E2,9.137482E0,1.3622515E0,1.7154412E0,1.032853E0,6.413447E2,2.2713401E0],"tree_param":{"num_deleted":"0","num_feature":"1536","num_nodes":"73","size_leaf_vector":"1"}},{"base_weights":[-1.6785577E-2,-1.7317015E-1,8.9869183E-1,-3.135539E-1,8.16944E-1,9.393721E-1,-3.6895585E-1,-6.198375E-1,2.0429431E-1,-4.037139E-2,9.6433914E-1,9.633592E-1,-1.8257037E0,-9.0320814E-1,-2.3475519E-1,-7.59442E-1,3.656326E-1,-5.793144E-1,4.8804247E-1,1.0080553E0,-3.6986735E-1,1.002088E0,-3.224121E-1,-3.0868366E0,8.283178E-2,-9.501513E-1,3.035526E-1,-4.722044E-1,6.783457E-1,-1.1244003E0,1.075767E0,6.639587E-1,-4.6334812E-1,-8.393889E-1,5.9425807E-1,7.050923E-1,-2.692285E-1,1.0301495E0,-3.4122247E-1,-3.5541895E-1,4.4712734E-1,1.0156217E0,-7.2000813E-1,-3.2605922E0,7.965223E-1,-2.7265474E-1,-1.1310247E0,-2.9794967E-1,5.665434E-3,-3.1430084E-1,1.6117488E-1,-2.0298125E-1,1.662041E-1,-3.1504312E-1,3.266109E-1,-3.5823312E-1,8.912533E-2,4.1051775E-2,3.3363727E-1,-2.2307867E-1,2.2415772E-1,-2.7132178E-2,-3.3460966E-1,-2.8425005E-1,5.8028173E-2,2.6861948E-1,-6.4960313E-3,-1.817527E-1,2.5332138E-1,-1.4934252E-1,3.132785E-1,2.905697E-1,-1.482679E-1,3.0730227E-1,-2.53285E-1,-1.4359069E0,7.973269E-2,2.9331142E-1,-3.477304E-2],"categories":[],"categories_nodes":[],"categories_segments":[],"categories_sizes":[],"default_left":[0,0,0,0,0,0,0,0,0,0,0,0,0,0,0,0,0,0,0,0,0,0,0,0,0,0,0,0,0,0,0,0,0,0,0,0,0,0,0,0,0,0,0,0,0,0,0,0,0,0,0,0,0,0,0,0,0,0,0,0,0,0,0,0,0,0,0,0,0,0,0,0,0,0,0,0,0,0,0],"id":7,"left_children":[1,3,5,7,9,11,-1,13,15,17,19,21,23,25,27,29,31,33,35,37,39,41,43,45,-1,47,49,51,53,55,57,59,61,63,65,67,-1,69,-1,-1,71,73,-1,75,77,-1,-1,-1,-1,-1,-1,-1,-1,-1,-1,-1,-1,-1,-1,-1,-1,-1,-1,-1,-1,-1,-1,-1,-1,-1,-1,-1,-1,-1,-1,-1,-1,-1,-1],"loss_changes":[5.2471216E2,4.3534497E2,4.7457703E1,4.3506937E2,4.9192657E1,3.6597992E1,0E0,1.8784192E2,1.5885785E2,1.6807514E1,1.9734863E1,2.6287354E1,1.3742313E1,5.6509216E1,1.5901048E2,9.938486E1,2.1653043E2,9.406181E0,9.606649E0,1.6420776E1,8.028179E0,2.5753967E1,5.520828E1,1.2185249E0,0E0,3.9846924E1,1.2536571E1,1.2233963E2,1.0857513E2,1.2518723E1,6.9527054E-1,7.592749E1,5.6299133E1,2.897047E0,1.109921E0,5.325657E0,0E0,7.397064E0,0E0,0E0,3.5957978E0,9.05603E0,0E0,2.6074768E1,2.1620846E0,0E0,0E0,0E0,0E0,0E0,0E0,0E0,0E0,0E0,0E0,0E0,0E0,0E0,0E0,0E0,0E0,0E0,0E0,0E0,0E0,0E0,0E0,0E0,0E0,0E0,0E0,0E0,0E0,0E0,0E0,0E0,0E0,0E0,0E0],"parents":[2147483647,0,0,1,1,2,2,3,3,4,4,5,5,7,7,8,8,9,9,10,10,11,11,12,12,13,13,14,14,15,15,16,16,17,17,18,18,19,19,20,20,21,21,22,22,23,23,25,25,26,26,27,27,28,28,29,29,30,30,31,31,32,32,33,33,34,34,35,35,37,37,40,40,41,41,43,43,44,44],"right_children":[2,4,6,8,10,12,-1,14,16,18,20,22,24,26,28,30,32,34,36,38,40,42,44,46,-1,48,50,52,54,56,58,60,62,64,66,68,-1,70,-1,-1,72,74,-1,76,78,-1,-1,-1,-1,-1,-1,-1,-1,-1,-1,-1,-1,-1,-1,-1,-1,-1,-1,-1,-1,-1,-1,-1,-1,-1,-1,-1,-1,-1,-1,-1,-1,-1,-1],"split_conditions":[4.0347423E-2,1.8780148E-2,2.3423443E-2,1.9589055E-2,1.990696E-2,5.83643E-2,-3.6895585E-1,5.448016E-3,6.4469175E-3,1.4990507E-2,5.6827776E-3,4.1707866E-2,5.784489E-3,8.894548E-2,2.3314431E-2,1.4091282E-2,5.784489E-3,5.361093E-3,3.3127405E-2,5.7912547E-2,2.3224331E-2,1.7733853E-1,2.9731229E-2,2.354229E-2,8.283178E-2,2.0161234E-1,5.82051E-3,5.116718E-2,5.539442E-3,6.775783E-2,6.006927E-2,1.2088872E-2,8.648503E-3,1.39965415E-2,1.2794863E-1,2.38864E-2,-2.692285E-1,2.4114793E-2,-3.4122247E-1,-3.5541895E-1,2.198933E-2,2.0554963E-2,-7.2000813E-1,6.32211E-3,8.4426835E-2,-2.7265474E-1,-1.1310247E0,-2.9794967E-1,5.665434E-3,-3.1430084E-1,1.6117488E-1,-2.0298125E-1,1.662041E-1,-3.1504312E-1,3.266109E-1,-3.5823312E-1,8.912533E-2,4.1051775E-2,3.3363727E-1,-2.2307867E-1,2.2415772E-1,-2.7132178E-2,-3.3460966E-1,-2.8425005E-1,5.8028173E-2,2.6861948E-1,-6.4960313E-3,-1.817527E-1,2.5332138E-1,-1.4934252E-1,3.132785E-1,2.905697E-1,-1.482679E-1,3.0730227E-1,-2.53285E-1,-1.4359069E0,7.973269E-2,2.9331142E-1,-3.477304E-2],"split_indices":[108,612,89,201,97,248,0,227,366,7,885,176,369,668,1478,1161,369,249,253,1407,610,1199,132,304,0,155,557,1154,610,799,114,304,330,179,112,557,0,10,0,0,300,1486,0,2,15,0,0,0,0,0,0,0,0,0,0,0,0,0,0,0,0,0,0,0,0,0,0,0,0,0,0,0,0,0,0,0,0,0,0],"split_type":[0,0,0,0,0,0,0,0,0,0,0,0,0,0,0,0,0,0,0,0,0,0,0,0,0,0,0,0,0,0,0,0,0,0,0,0,0,0,0,0,0,0,0,0,0,0,0,0,0,0,0,0,0,0,0,0,0,0,0,0,0,0,0,0,0,0,0,0,0,0,0,0,0,0,0,0,0,0,0],"sum_hessian":[3.6629602E3,3.129227E3,5.3373303E2,2.7412424E3,3.8798483E2,5.24272E2,9.461099E0,1.7223524E3,1.0188899E3,5.702548E1,3.3095935E2,5.20409E2,3.8629456E0,9.914375E2,7.309149E2,1.4557956E2,8.7331036E2,2.8183783E1,2.8841698E1,3.2069598E2,1.0263367E1,5.0540625E2,1.5002752E1,2.121401E0,1.7415446E0,9.5451917E2,3.6918304E1,5.8045276E2,1.5046217E2,1.2175425E2,2.3825304E1,6.423472E2,2.309631E2,2.3304129E1,4.879653E0,2.5359865E1,3.4818316E0,3.1794165E2,2.7543342E0,4.9130406E0,5.3503256E0,5.0410242E2,1.3038491E0,3.609816E0,1.1392936E1,1.0630145E0,1.0583864E0,9.139264E2,4.059282E1,4.930047E0,3.1988258E1,4.8432642E2,9.612635E1,2.8568415E1,1.2189376E2,1.1621497E2,5.539278E0,1.0657586E0,2.2759546E1,3.5420555E1,6.069267E2,1.4765414E2,8.330896E1,2.117067E1,2.1334596E0,2.972513E0,1.9071401E0,2.114405E0,2.324546E1,2.595961E0,3.153457E2,3.4245036E0,1.9258219E0,5.0219736E2,1.9050409E0,2.2702403E0,1.3395758E0,9.44575E0,1.947186E0],"tree_param":{"num_deleted":"0","num_feature":"1536","num_nodes":"79","size_leaf_vector":"1"}},{"base_weights":[-1.0102022E-2,1.0145795E-1,-1.1364902E0,1.9570924E-1,-1.056288E0,-1.0469457E0,-2.2958322E0,6.953716E-2,8.917121E-1,-3.188157E-1,4.8976753E-2,-3.159799E-1,9.257311E-2,-2.5865836E0,-3.1050235E-1,2.819697E-1,-4.8409456E-1,-3.543739E-1,9.3092424E-1,-2.8384993E0,-2.6312524E-1,3.5974875E-1,-1.1115853E0,-9.6087885E-1,2.2574505E-1,-8.1083924E-1,1.9340046E-1,9.4166386E-1,-4.21531E-1,-8.979237E-1,-1.9277914E-1,1.270431E-1,-3.1373218E-1,-3.138485E-1,-9.1149825E-1,-2.9635647E-1,3.8593736E-1,-9.857068E-2,3.2606578E-1,-2.9577503E-1,4.439825E-2,2.0069605E-1,-2.473769E-1,2.8640938E-1,-2.478967E-1],"categories":[],"categories_nodes":[],"categories_segments":[],"categories_sizes":[],"default_left":[0,0,0,0,0,0,0,0,0,0,0,0,0,0,0,0,0,0,0,0,0,0,0,0,0,0,0,0,0,0,0,0,0,0,0,0,0,0,0,0,0,0,0,0,0],"id":8,"left_children":[1,3,5,7,9,11,13,15,17,-1,-1,-1,-1,19,-1,21,23,25,27,29,-1,31,33,35,37,39,41,43,-1,-1,-1,-1,-1,-1,-1,-1,-1,-1,-1,-1,-1,-1,-1,-1,-1],"loss_changes":[3.9739163E2,3.142004E2,2.7181793E1,2.3368297E2,1.873642E0,2.6073914E0,4.506218E0,2.6527066E2,2.0284576E1,0E0,0E0,0E0,0E0,4.0804596E0,0E0,1.770584E2,2.1191519E2,3.4532366E0,1.1263214E1,2.4383392E0,0E0,1.3878125E2,7.712929E0,2.3966858E1,1.2071402E2,1.3854146E0,3.843735E0,9.891083E0,0E0,0E0,0E0,0E0,0E0,0E0,0E0,0E0,0E0,0E0,0E0,0E0,0E0,0E0,0E0,0E0,0E0],"parents":[2147483647,0,0,1,1,2,2,3,3,4,4,5,5,6,6,7,7,8,8,13,13,15,15,16,16,17,17,18,18,19,19,21,21,22,22,23,23,24,24,25,25,26,26,27,27],"right_children":[2,4,6,8,10,12,14,16,18,-1,-1,-1,-1,20,-1,22,24,26,28,30,-1,32,34,36,38,40,42,44,-1,-1,-1,-1,-1,-1,-1,-1,-1,-1,-1,-1,-1,-1,-1,-1,-1],"split_conditions":[2.3423443E-2,5.434133E-3,1.3466785E-2,1.2789268E-2,3.327465E-2,1.6359152E-1,5.599511E-3,3.2628234E-2,5.82051E-3,-3.188157E-1,4.8976753E-2,-3.159799E-1,9.257311E-2,5.6827776E-3,-3.1050235E-1,9.531523E-3,3.650458E-2,7.7816166E-2,4.386834E-3,3.2225054E-2,-2.6312524E-1,7.895027E-3,1.3466785E-2,1.046979E-1,5.3114068E-2,1.0711813E-2,4.099928E-2,4.655625E-3,-4.21531E-1,-8.979237E-1,-1.9277914E-1,1.270431E-1,-3.1373218E-1,-3.138485E-1,-9.1149825E-1,-2.9635647E-1,3.8593736E-1,-9.857068E-2,3.2606578E-1,-2.9577503E-1,4.439825E-2,2.0069605E-1,-2.473769E-1,2.8640938E-1,-2.478967E-1],"split_indices":[89,1487,97,612,948,890,27,369,557,0,0,0,0,885,0,329,227,97,401,947,0,137,97,538,1478,201,300,1407,0,0,0,0,0,0,0,0,0,0,0,0,0,0,0,0,0],"split_type":[0,0,0,0,0,0,0,0,0,0,0,0,0,0,0,0,0,0,0,0,0,0,0,0,0,0,0,0,0,0,0,0,0,0,0,0,0,0,0,0,0,0,0,0,0],"sum_hessian":[3.1605215E3,2.8765332E3,2.8398825E2,2.6607542E3,2.1577917E2,2.6539304E2,1.8595222E1,2.2533623E3,4.0739175E2,2.147752E2,1.0039723E0,2.6438324E2,1.0098011E0,1.4256184E1,4.3390384E0,1.628851E3,6.2451135E2,1.2183569E1,3.952082E2,1.1849577E1,2.4066072E0,1.5434478E3,8.540323E1,3.7337177E2,2.5113957E2,6.3837166E0,5.7998524E0,3.9399374E2,1.2144512E0,1.0731133E1,1.1184431E0,1.4771697E3,6.627807E1,8.409084E1,1.3123819E0,3.6949692E2,3.874847E0,1.531657E2,9.7973885E1,5.374177E0,1.0095396E0,4.186726E0,1.6131262E0,3.9156705E2,2.4267051E0],"tree_param":{"num_deleted":"0","num_feature":"1536","num_nodes":"45","size_leaf_vector":"1"}},{"base_weights":[-1.2885116E-2,-1.3934566E-1,7.909398E-1,-4.7176156E-2,-1.0871829E0,3.297376E-1,9.8174864E-1,7.837476E-2,-7.6164407E-1,-1.0283841E0,-4.9894157E-1,5.975602E-1,-1.1322266E0,1.0093607E0,-2.7762535E-1,1.5208395E-1,-8.771116E-1,-9.475616E-1,6.041834E-1,-3.1101653E-1,8.3513655E-2,6.9487774E-1,-2.5200381E0,-1.8467764E0,3.6252245E-1,1.029715E0,-6.8017584E-1,1.9951096E-1,-1.4274548E0,-5.743084E-1,-1.1409951E0,-1.0747911E0,-2.1115014E-1,7.8629833E-1,-9.690477E-1,8.399338E-1,-2.3503965E-1,-1.3418737E-1,-1.0270683E0,-1.750421E-2,-2.4076161E0,7.423815E-1,-2.2513084E-1,1.0400369E0,-2.020148E-1,-2.325501E-1,-6.4180695E-2,7.693322E-2,-3.039811E-1,-4.848923E-1,1.2893118E-1,-1.9238223E-1,4.0342602E-1,-3.5642558E-1,4.569268E-2,-3.3210695E-1,2.7596986E-1,-2.0446205E-1,1.9201459E-1,-1.733541E-1,2.741662E-1,-5.301949E-1,1.1263929E-1,2.706415E-1,-2.8416184E-1,1.1262817E-1,-5.422713E-1,2.1455917E-1,-3.05311E-1,4.469075E-2,-8.383406E-1,5.6771804E-2,2.5071466E-1,3.1590325E-1,2.6874194E-2],"categories":[],"categories_nodes":[],"categories_segments":[],"categories_sizes":[],"default_left":[0,0,0,0,0,0,0,0,0,0,0,0,0,0,0,0,0,0,0,0,0,0,0,0,0,0,0,0,0,0,0,0,0,0,0,0,0,0,0,0,0,0,0,0,0,0,0,0,0,0,0,0,0,0,0,0,0,0,0,0,0,0,0,0,0,0,0,0,0,0,0,0,0,0,0],"id":9,"left_children":[1,3,5,7,9,11,13,15,17,19,-1,21,23,25,-1,27,29,31,33,-1,-1,35,37,39,41,43,45,47,49,51,53,55,57,59,61,63,65,-1,-1,67,69,71,-1,73,-1,-1,-1,-1,-1,-1,-1,-1,-1,-1,-1,-1,-1,-1,-1,-1,-1,-1,-1,-1,-1,-1,-1,-1,-1,-1,-1,-1,-1,-1,-1],"loss_changes":[2.8314044E2,2.101987E2,3.2997192E1,1.9690369E2,5.5111847E0,4.465262E1,1.5011688E1,1.3164688E2,8.388115E1,2.4252777E0,0E0,3.0749363E1,1.9611704E1,9.778839E0,0E0,1.3021803E2,1.0042656E1,2.6865173E1,1.2198828E1,0E0,0E0,1.2805496E1,4.291807E0,1.24362755E1,3.3354914E0,5.2928467E0,1.2397766E-5,1.16589294E2,1.847136E1,9.13306E0,4.4761124E0,1.6854645E1,1.7990543E1,6.851078E0,5.5892687E0,9.867489E0,1.3536579E1,0E0,0E0,3.5576625E0,9.615826E0,1.20755196E-1,0E0,3.1125793E0,0E0,0E0,0E0,0E0,0E0,0E0,0E0,0E0,0E0,0E0,0E0,0E0,0E0,0E0,0E0,0E0,0E0,0E0,0E0,0E0,0E0,0E0,0E0,0E0,0E0,0E0,0E0,0E0,0E0,0E0,0E0],"parents":[2147483647,0,0,1,1,2,2,3,3,4,4,5,5,6,6,7,7,8,8,9,9,11,11,12,12,13,13,15,15,16,16,17,17,18,18,21,21,22,22,23,23,24,24,25,25,26,26,27,27,28,28,29,29,30,30,31,31,32,32,33,33,34,34,35,35,36,36,39,39,40,40,41,41,43,43],"right_children":[2,4,6,8,10,12,14,16,18,20,-1,22,24,26,-1,28,30,32,34,-1,-1,36,38,40,42,44,46,48,50,52,54,56,58,60,62,64,66,-1,-1,68,70,72,-1,74,-1,-1,-1,-1,-1,-1,-1,-1,-1,-1,-1,-1,-1,-1,-1,-1,-1,-1,-1,-1,-1,-1,-1,-1,-1,-1,-1,-1,-1,-1,-1],"split_conditions":[4.0347423E-2,2.3423443E-2,1.7018158E-2,4.198289E-3,1.3466785E-2,7.326172E-3,9.531523E-3,5.599511E-3,1.0215348E-2,1.6359152E-1,-4.9894157E-1,3.7214305E-2,9.377561E-3,3.8452628E-3,-2.7762535E-1,4.0824055E-3,1.16524305E-2,3.4252923E-2,5.600771E-3,-3.1101653E-1,8.3513655E-2,4.95562E-2,1.0552065E-1,1.4966279E-2,1.1227005E-1,4.769467E-3,2.649004E-2,8.837212E-3,1.2825855E-2,2.6681334E-1,4.8800282E-2,3.273684E-2,2.5018862E-2,6.859283E-2,2.547925E-2,9.531523E-3,2.1875603E-2,-1.3418737E-1,-1.0270683E0,7.859984E-2,5.555072E-2,8.856865E-3,-2.2513084E-1,3.4179126E-3,-2.020148E-1,-2.325501E-1,-6.4180695E-2,7.693322E-2,-3.039811E-1,-4.848923E-1,1.2893118E-1,-1.9238223E-1,4.0342602E-1,-3.5642558E-1,4.569268E-2,-3.3210695E-1,2.7596986E-1,-2.0446205E-1,1.9201459E-1,-1.733541E-1,2.741662E-1,-5.301949E-1,1.1263929E-1,2.706415E-1,-2.8416184E-1,1.1262817E-1,-5.422713E-1,2.1455917E-1,-3.05311E-1,4.469075E-2,-8.383406E-1,5.6771804E-2,2.5071466E-1,3.1590325E-1,2.6874194E-2],"split_indices":[108,89,2,416,97,283,329,27,612,890,0,627,227,1398,0,757,410,777,764,0,0,103,367,103,90,1020,1270,1006,386,367,554,1373,293,10,610,329,613,0,0,112,114,276,0,13,0,0,0,0,0,0,0,0,0,0,0,0,0,0,0,0,0,0,0,0,0,0,0,0,0,0,0,0,0,0,0],"split_type":[0,0,0,0,0,0,0,0,0,0,0,0,0,0,0,0,0,0,0,0,0,0,0,0,0,0,0,0,0,0,0,0,0,0,0,0,0,0,0,0,0,0,0,0,0,0,0,0,0,0,0,0,0,0,0,0,0,0,0,0,0,0,0,0,0,0,0,0,0,0,0,0,0,0,0],"sum_hessian":[2.7833018E3,2.4056614E3,3.7764038E2,2.193419E3,2.1224248E2,1.11313545E2,2.6632684E2,1.8663434E3,3.270756E2,1.9510948E2,1.7133003E1,9.45786E1,1.6734941E1,2.6299002E2,3.3368247E0,1.7334597E3,1.3288364E2,2.881576E2,3.891801E1,1.9407784E2,1.0316406E0,9.246924E1,2.1093655E0,1.1163049E1,5.5718927E0,2.602453E2,2.7447085E0,1.6837766E3,4.9683147E1,6.3357758E1,6.952589E1,2.4531512E2,4.2842472E1,3.532862E1,3.5893884E0,8.007522E1,1.2394018E1,1.0942131E0,1.0151525E0,2.8613832E0,8.301665E0,4.4023213E0,1.1695715E0,2.590645E2,1.1807857E0,1.7297087E0,1.0149999E0,1.6090304E3,7.4746185E1,4.5215145E1,4.4680037E0,6.186482E1,1.4929354E0,6.7161835E1,2.3640478E0,2.4185207E2,3.4630551E0,2.7722027E1,1.5120446E1,2.7198434E0,3.260878E1,2.0548873E0,1.5345012E0,7.786036E1,2.2148583E0,9.476457E0,2.9175622E0,1.8160043E0,1.0453789E0,1.1718948E0,7.1297708E0,1.0726763E0,3.329645E0,2.554694E2,3.595125E0],"tree_param":{"num_deleted":"0","num_feature":"1536","num_nodes":"75","size_leaf_vector":"1"}},{"base_weights":[-1.3708144E-2,6.0161073E-2,-1.0635422E0,1.293766E-1,-1.0330008E0,-1.0734494E0,8.2990825E-2,1.8318334E-1,-1.1206895E0,-3.1171465E-1,-2.7693583E-2,-3.0737633E-1,-4.3326253E-1,-4.8715785E-1,2.8532627E-1,-1.2302841E0,5.621962E-1,-8.7884474E-1,3.1329293E-2,3.3550322E-1,-1.1110364E0,-1.3894513E0,-5.975662E-1,2.7733332E-1,-1.741575E-1,-2.8396815E-1,4.3604925E-1,-2.826614E-1,1.2515219E-1,1.1068669E-1,-4.7649756E-1,-4.063515E-1,1.102184E-1,-3.496974E-1,-5.549956E-1,-2.981825E-1,6.9665983E-3],"categories":[],"categories_nodes":[],"categories_segments":[],"categories_sizes":[],"default_left":[0,0,0,0,0,0,0,0,0,0,0,0,0,0,0,0,0,0,0,0,0,0,0,0,0,0,0,0,0,0,0,0,0,0,0,0,0],"id":10,"left_children":[1,3,5,7,9,11,-1,13,15,-1,-1,-1,-1,17,19,21,23,25,27,29,31,33,35,-1,-1,-1,-1,-1,-1,-1,-1,-1,-1,-1,-1,-1,-1],"loss_changes":[1.9716692E2,1.7987128E2,2.5160217E0,1.5053009E2,7.094879E-1,1.5295258E0,0E0,1.4690894E2,1.772763E1,0E0,0E0,0E0,0E0,5.7663597E1,1.307462E2,7.934799E0,3.1585636E0,2.691491E1,4.6632812E1,1.16232895E2,2.3814072E1,4.9329376E0,4.7594323E0,0E0,0E0,0E0,0E0,0E0,0E0,0E0,0E0,0E0,0E0,0E0,0E0,0E0,0E0],"parents":[2147483647,0,0,1,1,2,2,3,3,4,4,5,5,7,7,8,8,13,13,14,14,15,15,16,16,17,17,18,18,19,19,20,20,21,21,22,22],"right_children":[2,4,6,8,10,12,-1,14,16,-1,-1,-1,-1,18,20,22,24,26,28,30,32,34,36,-1,-1,-1,-1,-1,-1,-1,-1,-1,-1,-1,-1,-1,-1],"split_conditions":[2.3423443E-2,5.434133E-3,1.8057819E-1,6.3226996E-3,1.2528668E-1,1.3466785E-2,8.2990825E-2,1.0085241E-2,4.1519925E-2,-3.1171465E-1,-2.7693583E-2,-3.0737633E-1,-4.3326253E-1,7.7800085E-3,2.6204614E-3,1.5958928E-2,4.365244E-2,4.8850956E-3,6.4469175E-3,6.3913073E-3,3.2443594E-2,1.869197E-2,5.3920583E-3,2.7733332E-1,-1.741575E-1,-2.8396815E-1,4.3604925E-1,-2.826614E-1,1.2515219E-1,1.1068669E-1,-4.7649756E-1,-4.063515E-1,1.102184E-1,-3.496974E-1,-5.549956E-1,-2.981825E-1,6.9665983E-3],"split_indices":[89,1487,77,898,214,97,0,112,108,0,0,0,0,201,460,781,120,34,366,876,108,227,862,0,0,0,0,0,0,0,0,0,0,0,0,0,0],"split_type":[0,0,0,0,0,0,0,0,0,0,0,0,0,0,0,0,0,0,0,0,0,0,0,0,0,0,0,0,0,0,0,0,0,0,0,0,0],"sum_hessian":[2.5406099E3,2.3744778E3,1.6613211E2,2.233915E3,1.4056276E2,1.6511058E2,1.0215347E0,2.1425466E3,9.13684E1,1.3956091E2,1.0018421E0,1.4920996E2,1.5900606E1,2.828032E2,1.8597435E3,8.603452E1,5.3338804E0,1.6070494E2,1.2209824E2,1.7959669E3,6.3776627E1,6.7786156E1,1.824836E1,4.195046E0,1.1388347E0,1.5674817E2,3.9567678E0,3.4246967E1,8.785128E1,1.7660659E3,2.9900942E1,5.4830883E1,8.945744E0,4.7994617E1,1.9791542E1,1.0770354E1,7.478006E0],"tree_param":{"num_deleted":"0","num_feature":"1536","num_nodes":"37","size_leaf_vector":"1"}},{"base_weights":[-1.8208005E-2,-1.15358636E-1,7.2528106E-1,-3.495551E-1,1.8343663E-1,-1.3166888E-1,8.8942444E-1,-6.310835E-1,-4.9036976E-2,-6.3523066E-1,3.2786226E-1,-5.482047E-1,3.2334012E-1,9.357122E-1,-1.8392079E-1,-3.1287074E-1,-9.315053E-1,4.9752362E-2,-1.3990052E0,-9.540656E-1,9.5208275E-1,5.144731E-1,-2.646346E-1,-7.609414E-1,4.290442E-1,4.9041143E-1,-2.4437566E-1,9.575179E-1,-2.5667018E-1,4.70878E-1,-7.49683E-1,-5.8461666E-1,3.1676203E-1,-9.77669E-1,3.1837496E-1,1.6314502E-1,-3.036046E-1,-1.6044765E0,-1.8586472E-1,-4.7302556E-1,-1.2329984E0,-8.272909E-2,3.0682105E-1,-7.02076E-1,5.7797277E-1,1.3756487E-1,-6.1770207E-1,-8.8846517E-1,1.7873788E-1,1.986122E-1,-5.6781903E-2,6.261634E-1,-2.891477E-1,9.783404E-1,-5.927169E-1,-1.5267834E-1,2.589173E-1,-2.969629E-1,2.9761283E-2,-2.360316E-1,1.3758063E-1,-2.9383937E-1,2.110669E-1,-3.005703E-1,1.1816672E-1,-2.0309772E-1,1.0424849E-1,-2.4404354E-1,-6.3082033E-1,1.0029167E-1,-4.0127936E-1,-1.9150531E-1,3.0452943E-1,-3.7790427E-1,8.300533E-2,8.062592E-2,-7.1072805E-1,1.9591396E-1,-1.5723884E-1,7.785735E-2,-2.6503006E-1,-2.3240246E-1,1.22075655E-1,-2.9349604E-1,9.234505E-2,2.1965767E-1,-1.7226776E-1,2.9729667E-1,-2.254888E-1,1.6327003E-1,-4.0122053E-1],"categories":[],"categories_nodes":[],"categories_segments":[],"categories_sizes":[],"default_left":[0,0,0,0,0,0,0,0,0,0,0,0,0,0,0,0,0,0,0,0,0,0,0,0,0,0,0,0,0,0,0,0,0,0,0,0,0,0,0,0,0,0,0,0,0,0,0,0,0,0,0,0,0,0,0,0,0,0,0,0,0,0,0,0,0,0,0,0,0,0,0,0,0,0,0,0,0,0,0,0,0,0,0,0,0,0,0,0,0,0,0],"id":11,"left_children":[1,3,5,7,9,11,13,15,17,19,21,23,25,27,29,31,33,35,37,39,41,43,45,47,49,51,-1,53,-1,55,57,59,61,63,-1,65,-1,67,69,71,73,-1,-1,75,77,79,81,83,-1,-1,-1,85,-1,87,89,-1,-1,-1,-1,-1,-1,-1,-1,-1,-1,-1,-1,-1,-1,-1,-1,-1,-1,-1,-1,-1,-1,-1,-1,-1,-1,-1,-1,-1,-1,-1,-1,-1,-1,-1,-1],"loss_changes":[1.68434E2,1.4437341E2,3.8024994E1,9.780885E1,1.0742584E2,8.5530615E0,1.141539E1,5.678064E1,7.481112E1,6.990132E1,8.543592E1,5.200189E0,4.5344996E0,9.299606E0,4.1285496E0,5.0047432E1,2.9240662E1,6.3155285E1,9.236221E0,1.4715988E1,2.3036366E0,4.575464E1,2.6418728E1,3.9226227E0,8.212026E-1,4.470841E0,0E0,7.519058E0,0E0,2.4905019E0,1.2916596E0,4.336505E1,4.5063507E1,1.0370483E1,0E0,7.358092E1,0E0,1.1129517E1,4.4438367E0,1.1343157E1,3.2307358E0,0E0,0E0,4.849695E1,4.654892E1,1.1125845E1,1.6227875E1,2.2713509E0,0E0,0E0,0E0,2.7780237E0,0E0,5.394684E0,3.6674185E0,0E0,0E0,0E0,0E0,0E0,0E0,0E0,0E0,0E0,0E0,0E0,0E0,0E0,0E0,0E0,0E0,0E0,0E0,0E0,0E0,0E0,0E0,0E0,0E0,0E0,0E0,0E0,0E0,0E0,0E0,0E0,0E0,0E0,0E0,0E0,0E0],"parents":[2147483647,0,0,1,1,2,2,3,3,4,4,5,5,6,6,7,7,8,8,9,9,10,10,11,11,12,12,13,13,14,14,15,15,16,16,17,17,18,18,19,19,20,20,21,21,22,22,23,23,24,24,25,25,27,27,29,29,30,30,31,31,32,32,33,33,35,35,37,37,38,38,39,39,40,40,43,43,44,44,45,45,46,46,47,47,51,51,53,53,54,54],"right_children":[2,4,6,8,10,12,14,16,18,20,22,24,26,28,30,32,34,36,38,40,42,44,46,48,50,52,-1,54,-1,56,58,60,62,64,-1,66,-1,68,70,72,74,-1,-1,76,78,80,82,84,-1,-1,-1,86,-1,88,90,-1,-1,-1,-1,-1,-1,-1,-1,-1,-1,-1,-1,-1,-1,-1,-1,-1,-1,-1,-1,-1,-1,-1,-1,-1,-1,-1,-1,-1,-1,-1,-1,-1,-1,-1,-1],"split_conditions":[1.4423238E-2,1.5011723E-2,1.990696E-2,5.448016E-3,6.4469175E-3,1.4990507E-2,5.6827776E-3,1.050595E-2,9.090098E-3,1.3902487E-2,7.355891E-3,5.361093E-3,3.3127405E-2,5.7912547E-2,2.198933E-2,5.1785596E-2,3.3421226E-2,5.434133E-3,2.965916E-2,9.039672E-3,2.2446778E-2,6.684853E-3,3.5991386E-2,8.950493E-3,6.32211E-3,7.261672E-2,-2.4437566E-1,6.620055E-2,-2.5667018E-1,5.539442E-3,4.0764797E-2,1.0692443E-2,3.614857E-2,1.4416929E-1,3.1837496E-1,5.3920583E-3,-3.036046E-1,2.6000924E-2,4.0824055E-3,5.608345E-3,1.8149894E-1,-8.272909E-2,3.0682105E-1,5.8476184E-2,5.3183995E-3,1.6382607E-2,2.9209431E-2,6.1560683E-2,1.7873788E-1,1.986122E-1,-5.6781903E-2,2.226208E-2,-2.891477E-1,1.1097983E-1,5.583879E-2,-1.5267834E-1,2.589173E-1,-2.969629E-1,2.9761283E-2,-2.360316E-1,1.3758063E-1,-2.9383937E-1,2.110669E-1,-3.005703E-1,1.1816672E-1,-2.0309772E-1,1.0424849E-1,-2.4404354E-1,-6.3082033E-1,1.0029167E-1,-4.0127936E-1,-1.9150531E-1,3.0452943E-1,-3.7790427E-1,8.300533E-2,8.062592E-2,-7.1072805E-1,1.9591396E-1,-1.5723884E-1,7.785735E-2,-2.6503006E-1,-2.3240246E-1,1.22075655E-1,-2.9349604E-1,9.234505E-2,2.1965767E-1,-1.7226776E-1,2.9729667E-1,-2.254888E-1,1.6327003E-1,-4.0122053E-1],"split_indices":[612,201,97,227,366,7,885,366,95,476,134,249,253,1407,300,300,1448,1487,293,304,24,304,177,108,2,408,0,764,0,610,610,668,557,108,0,862,0,410,757,448,114,0,0,97,140,441,383,283,0,0,0,304,0,248,14,0,0,0,0,0,0,0,0,0,0,0,0,0,0,0,0,0,0,0,0,0,0,0,0,0,0,0,0,0,0,0,0,0,0,0,0],"split_type":[0,0,0,0,0,0,0,0,0,0,0,0,0,0,0,0,0,0,0,0,0,0,0,0,0,0,0,0,0,0,0,0,0,0,0,0,0,0,0,0,0,0,0,0,0,0,0,0,0,0,0,0,0,0,0,0,0,0,0,0,0,0,0,0,0,0,0,0,0,0,0,0,0,0,0,0,0,0,0,0,0,0,0,0,0,0,0,0,0,0,0],"sum_hessian":[2.32974E3,2.0612449E3,2.6849503E2,1.1554391E3,9.0580585E2,4.3193073E1,2.2530194E2,5.960002E2,5.594389E2,1.3532523E2,7.7048065E2,2.2442953E1,2.0750118E1,2.1611047E2,9.19148E0,2.9042145E2,3.055787E2,5.221888E2,3.7250114E1,1.1302205E2,2.2303179E1,5.860363E2,1.8444434E2,1.8612545E1,3.8304083E0,1.858978E1,2.1603386E0,2.1397119E2,2.1392753E0,4.3382316E0,4.853248E0,2.0291568E2,8.750575E1,2.9915787E2,6.420834E0,4.7256683E2,4.962195E1,3.1578962E1,5.671153E0,4.247192E1,7.055013E1,1.055601E0,2.1247578E1,2.8572773E1,5.574635E2,8.650821E1,9.793613E1,1.7328892E1,1.283654E0,2.730702E0,1.0997063E0,1.7523403E1,1.0663763E0,2.1149928E2,2.4719086E0,1.1549815E0,3.18325E0,3.6534226E0,1.1998255E0,1.7018332E2,3.273237E1,1.9758553E1,6.77472E1,2.9422913E2,4.9287686E0,8.4554504E1,3.8801233E2,1.3221738E1,1.8357224E1,4.395638E0,1.2755148E0,3.8739166E1,3.7327526E0,6.948759E1,1.0625432E0,1.8586971E1,9.985803E0,5.222931E2,3.5170437E1,7.7943565E1,8.564651E0,8.513701E1,1.279912E1,1.6287691E1,1.0411992E0,1.6459589E1,1.0638156E0,2.1038821E2,1.1110702E0,1.0848248E0,1.3870838E0],"tree_param":{"num_deleted":"0","num_feature":"1536","num_nodes":"91","size_leaf_vector":"1"}},{"base_weights":[-1.5721342E-2,-1.0145813E-1,7.0175105E-1,-4.4177335E-2,-1.0723023E0,2.0114848E-1,9.526667E-1,7.979898E-2,-5.204186E-1,-3.081442E-1,-4.59685E-1,4.972797E-1,-1.0022012E0,9.752492E-1,-2.1033873E-1,1.2493253E-1,-1.1933963E0,-8.2405746E-1,-3.39277E-2,7.2218376E-1,-6.346409E-1,-2.9703045E-1,-2.0161352E0,9.889213E-1,-1.3740882E-1,2.324224E-1,-4.4101313E-1,-3.2029948E-1,-1.9650326E0,-8.62145E-1,1.1679199E0,-4.5122537E-1,3.8974595E-1,8.0226123E-1,-3.365496E-1,5.563527E-1,-1.5705467E0,4.5572427E-1,-9.89468E-1,-7.188445E-1,-1.13379486E-1,1.0035126E0,-1.115692E-1,7.7921726E-2,-4.9917942E-1,-1.8491457E-1,1.800791E-1,-2.9240665E-1,-7.1992624E-1,-2.6600328E-1,5.344582E-1,4.0883458E-1,9.2700966E-2,1.2512679E-3,-4.117432E-1,1.8171147E-1,-1.2934527E-1,-1.2029129E-1,2.7085596E-1,-1.1270852E-1,2.5890696E-1,-4.7967046E-2,-7.230624E-1,2.3673066E-1,-6.323458E-2,-4.860691E-1,2.4593413E-2,3.04463E-1,-8.9117855E-2],"categories":[],"categories_nodes":[],"categories_segments":[],"categories_sizes":[],"default_left":[0,0,0,0,0,0,0,0,0,0,0,0,0,0,0,0,0,0,0,0,0,0,0,0,0,0,0,0,0,0,0,0,0,0,0,0,0,0,0,0,0,0,0,0,0,0,0,0,0,0,0,0,0,0,0,0,0,0,0,0,0,0,0,0,0,0,0,0,0],"id":12,"left_children":[1,3,5,7,9,11,13,15,17,-1,-1,19,21,23,-1,25,27,29,31,33,35,37,39,41,-1,43,45,-1,47,49,51,53,55,57,-1,59,61,63,65,-1,-1,67,-1,-1,-1,-1,-1,-1,-1,-1,-1,-1,-1,-1,-1,-1,-1,-1,-1,-1,-1,-1,-1,-1,-1,-1,-1,-1,-1],"loss_changes":[1.2780858E2,1.03153946E2,2.7666527E1,1.03568726E2,5.7273865E-1,2.733746E1,6.191223E0,8.014578E1,5.3491302E1,0E0,0E0,1.6015545E1,1.0273298E1,3.3120117E0,0E0,8.194586E1,2.5351105E0,1.7928406E1,2.4976078E1,8.497179E0,1.2758101E1,5.7369123E0,2.8698788E0,3.249115E0,0E0,5.903503E1,3.9646095E1,0E0,2.9382706E-2,1.5810669E1,3.5033798E-1,2.9848213E1,1.2695907E1,6.4005775E0,0E0,1.8762958E0,6.996114E0,1.3981218E0,3.9158373E0,0E0,0E0,2.4234467E0,0E0,0E0,0E0,0E0,0E0,0E0,0E0,0E0,0E0,0E0,0E0,0E0,0E0,0E0,0E0,0E0,0E0,0E0,0E0,0E0,0E0,0E0,0E0,0E0,0E0,0E0,0E0],"parents":[2147483647,0,0,1,1,2,2,3,3,4,4,5,5,6,6,7,7,8,8,11,11,12,12,13,13,15,15,16,16,17,17,18,18,19,19,20,20,21,21,22,22,23,23,25,25,26,26,28,28,29,29,30,30,31,31,32,32,33,33,35,35,36,36,37,37,38,38,41,41],"right_children":[2,4,6,8,10,12,14,16,18,-1,-1,20,22,24,-1,26,28,30,32,34,36,38,40,42,-1,44,46,-1,48,50,52,54,56,58,-1,60,62,64,66,-1,-1,68,-1,-1,-1,-1,-1,-1,-1,-1,-1,-1,-1,-1,-1,-1,-1,-1,-1,-1,-1,-1,-1,-1,-1,-1,-1,-1,-1],"split_conditions":[6.220734E-2,9.531523E-3,1.5633512E-2,5.3664064E-3,1.7013684E-2,1.2670838E-2,2.3423443E-2,1.0400172E-2,1.7529445E-2,-3.081442E-1,-4.59685E-1,5.3801246E-2,1.8902453E-2,8.316458E-3,-2.1033873E-1,8.648503E-3,3.7133995E-2,5.8207635E-2,1.9885138E-2,3.3630293E-3,1.3161123E-2,3.5828866E-2,2.235279E-2,1.22692354E-1,-1.3740882E-1,6.572129E-2,1.0215348E-2,-3.2029948E-1,5.448016E-3,1.874011E-1,6.356092E-2,1.492429E-2,9.281107E-2,1.3466785E-2,-3.365496E-1,1.3644572E-1,8.991711E-2,1.02958165E-1,1.4909293E-1,-7.188445E-1,-1.13379486E-1,1.1911104E-1,-1.115692E-1,7.7921726E-2,-4.9917942E-1,-1.8491457E-1,1.800791E-1,-2.9240665E-1,-7.1992624E-1,-2.6600328E-1,5.344582E-1,4.0883458E-1,9.2700966E-2,1.2512679E-3,-4.117432E-1,1.8171147E-1,-1.2934527E-1,-1.2029129E-1,2.7085596E-1,-1.1270852E-1,2.5890696E-1,-4.7967046E-2,-7.230624E-1,2.3673066E-1,-6.323458E-2,-4.860691E-1,2.4593413E-2,3.04463E-1,-8.9117855E-2],"split_indices":[108,329,2,1150,97,283,89,942,610,0,0,103,392,235,0,330,97,538,367,1063,304,14,575,521,0,239,612,0,227,668,1150,253,14,97,0,276,112,112,108,0,0,62,0,0,0,0,0,0,0,0,0,0,0,0,0,0,0,0,0,0,0,0,0,0,0,0,0,0,0],"split_type":[0,0,0,0,0,0,0,0,0,0,0,0,0,0,0,0,0,0,0,0,0,0,0,0,0,0,0,0,0,0,0,0,0,0,0,0,0,0,0,0,0,0,0,0,0,0,0,0,0,0,0,0,0,0,0,0,0,0,0,0,0,0,0,0,0,0,0,0,0],"sum_hessian":[2.0755654E3,1.8547806E3,2.207847E2,1.752431E3,1.023497E2,7.431677E1,1.4646794E2,1.3911228E3,3.6130814E2,9.614447E1,6.2052326E0,6.011089E1,1.4205879E1,1.4489964E2,1.568297E0,1.3443682E3,4.675468E1,2.2203386E2,1.3927428E2,5.044903E1,9.661859E0,9.141263E0,5.064616E0,1.4383759E2,1.0620452E0,1.1302832E3,2.1408498E2,4.225348E1,4.501199E0,2.1842467E2,3.6091936E0,7.013235E1,6.914193E1,4.8890854E1,1.5581764E0,4.42999E0,5.2318683E0,4.543663E0,4.5975995E0,3.7354405E0,1.3291755E0,1.4257144E2,1.2661532E0,1.1150836E3,1.5199576E1,1.8357574E2,3.0509226E1,2.3621218E0,2.1390767E0,2.1707487E2,1.3497925E0,2.4636397E0,1.1455537E0,4.7598682E1,2.2533663E1,5.494842E1,1.4193509E1,3.5416162E0,4.534924E1,1.0410135E0,3.388976E0,2.3963497E0,2.8355188E0,2.9061203E0,1.6375427E0,2.5715392E0,2.0260606E0,1.4155424E2,1.0171907E0],"tree_param":{"num_deleted":"0","num_feature":"1536","num_nodes":"69","size_leaf_vector":"1"}},{"base_weights":[-1.5613327E-2,1.3977687E-1,-3.624257E-1,1.9526587E-1,-3.1655252E-1,-7.7195513E-1,-1.6951479E-1,2.7652714E-1,-4.1726092E-1,-5.048452E-1,-1.1407915E0,-4.5712554E-1,1.947763E-1,3.1673843E-1,-3.394655E-1,-7.7154845E-1,2.7246594E-1,-5.627378E-1,1.1282724E0,-1.3181233E0,7.992156E-2,-1.09424986E-1,-8.68066E-1,3.156504E-1,-1.5963556E0,3.626546E-1,-7.58091E-1,-8.313328E-1,2.979615E-1,-6.1943537E-1,7.252773E-1,-7.646141E-1,-5.8208033E-2,-3.415363E-2,4.6764436E-1,-1.4374064E0,-2.856406E-1,3.760999E-1,-3.977883E-1,-3.8628615E-2,-2.353159E0,-9.288993E-1,1.1843686E0,7.305342E-2,8.9387953E-1,-1.7917316E0,-7.7809826E-2,1.1866528E-1,-3.283019E-1,-2.697038E-1,2.1418518E-1,-2.765099E-1,1.0416957E-1,-2.4682593E-1,2.6347682E-1,2.6469567E-1,-3.317311E-1,-2.599846E-1,-2.7663486E-2,9.296852E-2,-3.8990784E-1,-3.6832398E-1,-6.880991E-1,-2.7749792E-1,1.2896459E-1,-1.646253E-1,2.2116648E-1,-2.5677627E-1,3.1190474E-2,-1.1063049E0,4.6827115E-2,-3.1274658E-1,3.8503893E-2,-1.8323293E-1,7.9389787E-1,-7.1889855E-2,1.9259323E-1,-5.0869156E-2,2.8120938E-1,-5.817001E-1,-1.2784907E-1],"categories":[],"categories_nodes":[],"categories_segments":[],"categories_sizes":[],"default_left":[0,0,0,0,0,0,0,0,0,0,0,0,0,0,0,0,0,0,0,0,0,0,0,0,0,0,0,0,0,0,0,0,0,0,0,0,0,0,0,0,0,0,0,0,0,0,0,0,0,0,0,0,0,0,0,0,0,0,0,0,0,0,0,0,0,0,0,0,0,0,0,0,0,0,0,0,0,0,0,0,0],"id":13,"left_children":[1,3,5,7,-1,9,11,13,15,17,19,21,23,25,-1,27,29,31,33,35,37,39,41,43,45,47,49,51,-1,53,55,57,59,-1,-1,61,63,65,-1,67,69,71,73,75,77,79,-1,-1,-1,-1,-1,-1,-1,-1,-1,-1,-1,-1,-1,-1,-1,-1,-1,-1,-1,-1,-1,-1,-1,-1,-1,-1,-1,-1,-1,-1,-1,-1,-1,-1,-1],"loss_changes":[1.03335945E2,8.8013214E1,4.6740837E1,6.314695E1,0E0,1.8113304E1,4.2479786E1,6.369519E1,3.6551872E1,1.12066345E1,1.7181465E1,3.225258E1,3.93014E1,5.398671E1,0E0,1.1219276E1,2.1130121E1,1.102232E1,2.4026294E0,8.079323E0,5.0576386E0,1.9570559E1,1.4037132E1,2.3600502E1,2.537691E0,5.0492035E1,9.958534E0,1.0526199E1,0E0,6.1375546E0,1.0874531E1,5.236973E0,1.5087762E1,0E0,0E0,8.233215E0,4.2345896E0,3.685113E0,0E0,1.4191405E1,1.3197746E1,1.2286209E1,1.0597759E1,2.148965E1,2.4606438E0,1.1564102E0,0E0,0E0,0E0,0E0,0E0,0E0,0E0,0E0,0E0,0E0,0E0,0E0,0E0,0E0,0E0,0E0,0E0,0E0,0E0,0E0,0E0,0E0,0E0,0E0,0E0,0E0,0E0,0E0,0E0,0E0,0E0,0E0,0E0,0E0,0E0],"parents":[2147483647,0,0,1,1,2,2,3,3,5,5,6,6,7,7,8,8,9,9,10,10,11,11,12,12,13,13,15,15,16,16,17,17,18,18,19,19,20,20,21,21,22,22,23,23,24,24,25,25,26,26,27,27,29,29,30,30,31,31,32,32,35,35,36,36,37,37,39,39,40,40,41,41,42,42,43,43,44,44,45,45],"right_children":[2,4,6,8,-1,10,12,14,16,18,20,22,24,26,-1,28,30,32,34,36,38,40,42,44,46,48,50,52,-1,54,56,58,60,-1,-1,62,64,66,-1,68,70,72,74,76,78,80,-1,-1,-1,-1,-1,-1,-1,-1,-1,-1,-1,-1,-1,-1,-1,-1,-1,-1,-1,-1,-1,-1,-1,-1,-1,-1,-1,-1,-1,-1,-1,-1,-1,-1,-1],"split_conditions":[4.245868E-2,9.531523E-3,1.9945117E-2,4.198289E-3,-3.1655252E-1,2.6347598E-2,2.029869E-2,1.0400172E-2,8.025387E-3,4.918698E-2,1.6315179E-2,1.7586512E-2,6.5522916E-3,5.235995E-3,-3.394655E-1,4.735657E-2,7.451379E-3,5.9000615E-2,4.6402406E-2,7.898594E-2,5.4053083E-2,3.4240457E-1,2.4488398E-1,8.510446E-3,4.2793844E-2,2.3442725E-2,3.6100764E-2,1.6081259E-2,2.979615E-1,6.913008E-3,4.8584804E-2,3.2173E-2,4.988162E-3,-3.415363E-2,4.6764436E-1,1.7610261E-1,5.9409294E-2,5.448016E-3,-3.977883E-1,1.3466785E-2,6.1590313E-3,2.4443073E-2,1.01093724E-1,2.1217022E-2,1.3466785E-2,9.648988E-2,-7.7809826E-2,1.1866528E-1,-3.283019E-1,-2.697038E-1,2.1418518E-1,-2.765099E-1,1.0416957E-1,-2.4682593E-1,2.6347682E-1,2.6469567E-1,-3.317311E-1,-2.599846E-1,-2.7663486E-2,9.296852E-2,-3.8990784E-1,-3.6832398E-1,-6.880991E-1,-2.7749792E-1,1.2896459E-1,-1.646253E-1,2.2116648E-1,-2.5677627E-1,3.1190474E-2,-1.1063049E0,4.6827115E-2,-3.1274658E-1,3.8503893E-2,-1.8323293E-1,7.9389787E-1,-7.1889855E-2,1.9259323E-1,-5.0869156E-2,2.8120938E-1,-5.817001E-1,-1.2784907E-1],"split_indices":[253,329,10,416,0,410,610,942,293,771,293,369,1174,404,0,821,610,463,114,73,902,1128,114,1478,136,511,377,108,0,805,441,777,947,0,0,112,227,227,0,97,293,1154,56,293,97,125,0,0,0,0,0,0,0,0,0,0,0,0,0,0,0,0,0,0,0,0,0,0,0,0,0,0,0,0,0,0,0,0,0,0,0],"split_type":[0,0,0,0,0,0,0,0,0,0,0,0,0,0,0,0,0,0,0,0,0,0,0,0,0,0,0,0,0,0,0,0,0,0,0,0,0,0,0,0,0,0,0,0,0,0,0,0,0,0,0,0,0,0,0,0,0,0,0,0,0,0,0,0,0,0,0,0,0,0,0,0,0,0,0,0,0,0,0,0,0],"sum_hessian":[1.9155503E3,1.323258E3,5.9229224E2,1.2653373E3,5.7920845E1,1.8870016E2,4.035921E2,1.1176165E3,1.4772078E2,1.10816216E2,7.788396E1,2.2539001E2,1.7820207E2,1.0873397E3,3.0276701E1,9.751318E1,5.02076E1,1.0765535E2,3.1608677E0,6.7935265E1,9.948687E0,1.22775116E2,1.026149E2,1.677081E2,1.0493971E1,1.0434276E3,4.39121E1,9.482958E1,2.6836061E0,1.6782728E1,3.342487E1,7.652149E1,3.113386E1,1.0029433E0,2.1579244E0,6.0547955E1,7.387311E0,8.82252E0,1.126166E0,1.200058E2,2.7693179E0,1.0019264E2,2.4222515E0,1.1893505E2,4.8773056E1,8.859235E0,1.634736E0,1.0211015E3,2.2326128E1,4.0430843E1,3.4812574E0,8.8278725E1,6.5508556E0,1.5173514E1,1.6092135E0,3.1261806E1,2.1630642E0,6.6191605E1,1.0329883E1,2.4592508E1,6.541352E0,5.0593643E1,9.954312E0,3.7467055E0,3.6406057E0,2.3316E0,6.49092E0,1.7084396E1,1.0292141E2,1.501253E0,1.2680649E0,9.048499E1,9.707649E0,1.3485636E0,1.0736879E0,7.712512E1,4.180993E1,1.8021202E0,4.6970936E1,7.6177797E0,1.2414552E0],"tree_param":{"num_deleted":"0","num_feature":"1536","num_nodes":"81","size_leaf_vector":"1"}},{"base_weights":[-1.6744405E-2,-8.601704E-2,6.159146E-1,-2.7600378E-2,-8.4198827E-1,-2.0403984E-1,8.14622E-1,1.626471E-2,-1.0134578E0,-8.975763E-1,8.050657E-1,-3.6621666E-1,2.4514486E-1,8.744841E-1,-2.2957885E-1,6.8346396E-2,-8.519384E-1,-3.1112102E-1,6.831838E-2,-4.2E-1,-1.0784049E0,-4.888465E-2,3.479375E-1,-1.0603419E-1,-8.337312E-1,8.9779365E-1,-2.5499037E-1,-5.261006E-1,1.9689415E-1,1.1111736E-1,-9.9462026E-1,-8.9379853E-1,2.008146E-1,-2.6293495E-1,-4.163591E-1,-1.1386734E0,2.7429748E-1,1.3375424E-1,-1.0976825E0,-1.0106058E0,1.3547972E-1,9.2411774E-1,-4.0065312E-1,8.4256336E-2,-2.6591167E-1,4.7579933E-2,-2.4323882E-1,-5.2710753E-2,-3.0288833E-1,-2.8218308E-1,1.07256114E-1,-1.3050844E-1,1.5039806E-1,-3.5988426E-1,1.005531E-1,-6.466267E-2,1.8085584E-1,1.2090642E-1,-1.6757628E-1,-1.0191656E-1,-3.7440658E-1,-3.5279024E-1,2.4426522E-2,2.9034367E-1,1.6458556E-2,9.448986E-2,-3.061342E-1,-1.344702E-1,1.5620217E-1],"categories":[],"categories_nodes":[],"categories_segments":[],"categories_sizes":[],"default_left":[0,0,0,0,0,0,0,0,0,0,0,0,0,0,0,0,0,0,0,0,0,0,0,0,0,0,0,0,0,0,0,0,0,0,0,0,0,0,0,0,0,0,0,0,0,0,0,0,0,0,0,0,0,0,0,0,0,0,0,0,0,0,0,0,0,0,0,0,0],"id":14,"left_children":[1,3,5,7,9,11,13,15,17,19,21,23,-1,25,27,29,31,-1,-1,33,35,-1,-1,37,39,41,-1,43,-1,45,47,49,-1,51,-1,53,55,57,59,61,-1,63,65,67,-1,-1,-1,-1,-1,-1,-1,-1,-1,-1,-1,-1,-1,-1,-1,-1,-1,-1,-1,-1,-1,-1,-1,-1,-1],"loss_changes":[7.782097E1,7.064504E1,2.8718697E1,6.4298836E1,1.1228889E1,6.0930343E0,9.0306015E0,6.445428E1,2.09243E0,9.174271E0,1.6564531E0,3.6677995E0,0E0,6.1416626E0,2.5652785E0,6.123565E1,5.735611E0,0E0,0E0,4.5384126E0,6.8525696E0,0E0,0E0,5.1366935E0,2.9333205E0,4.899475E0,0E0,1.5890573E0,0E0,5.6745163E1,4.6297836E-1,4.960228E0,0E0,4.030353E0,0E0,7.3176346E0,8.103436E-1,3.5416086E0,5.4025173E-2,1.8809719E0,0E0,4.891327E0,1.7986592E0,1.0396317E0,0E0,0E0,0E0,0E0,0E0,0E0,0E0,0E0,0E0,0E0,0E0,0E0,0E0,0E0,0E0,0E0,0E0,0E0,0E0,0E0,0E0,0E0,0E0,0E0,0E0],"parents":[2147483647,0,0,1,1,2,2,3,3,4,4,5,5,6,6,7,7,8,8,9,9,10,10,11,11,13,13,14,14,15,15,16,16,19,19,20,20,23,23,24,24,25,25,27,27,29,29,30,30,31,31,33,33,35,35,36,36,37,37,38,38,39,39,41,41,42,42,43,43],"right_children":[2,4,6,8,10,12,14,16,18,20,22,24,-1,26,28,30,32,-1,-1,34,36,-1,-1,38,40,42,-1,44,-1,46,48,50,-1,52,-1,54,56,58,60,62,-1,64,66,68,-1,-1,-1,-1,-1,-1,-1,-1,-1,-1,-1,-1,-1,-1,-1,-1,-1,-1,-1,-1,-1,-1,-1,-1,-1],"split_conditions":[1.4423238E-2,9.577238E-3,1.990696E-2,2.3423443E-2,7.639803E-2,5.0605893E-2,5.6827776E-3,7.4148024E-3,3.5420656E-2,1.5773067E-2,1.1549878E-1,2.6127728E-2,2.4514486E-1,1.5745653E-1,3.1033073E-2,5.434133E-3,1.7735009E-1,-3.1112102E-1,6.831838E-2,8.152199E-2,2.9950384E-2,-4.888465E-2,3.479375E-1,5.3761292E-2,9.7735584E-2,6.620055E-2,-2.5499037E-1,1.5766041E-2,1.9689415E-1,3.1693425E-2,6.68346E-3,2.5164219E-2,2.008146E-1,7.633676E-2,-4.163591E-1,9.699591E-2,2.712233E-2,8.372306E-2,1.8184254E-1,6.6089625E-3,1.3547972E-1,1.0626102E-1,3.180638E-2,1.4537952E-2,-2.6591167E-1,4.7579933E-2,-2.4323882E-1,-5.2710753E-2,-3.0288833E-1,-2.8218308E-1,1.07256114E-1,-1.3050844E-1,1.5039806E-1,-3.5988426E-1,1.005531E-1,-6.466267E-2,1.8085584E-1,1.2090642E-1,-1.6757628E-1,-1.0191656E-1,-3.7440658E-1,-3.5279024E-1,2.4426522E-2,2.9034367E-1,1.6458556E-2,9.448986E-2,-3.061342E-1,-1.344702E-1,1.5620217E-1],"split_indices":[612,104,97,89,1522,283,885,122,890,14,97,73,0,1407,239,1487,108,0,0,369,965,0,0,408,83,764,0,300,0,95,862,804,0,227,0,448,227,143,10,640,0,6,350,610,0,0,0,0,0,0,0,0,0,0,0,0,0,0,0,0,0,0,0,0,0,0,0,0,0],"split_type":[0,0,0,0,0,0,0,0,0,0,0,0,0,0,0,0,0,0,0,0,0,0,0,0,0,0,0,0,0,0,0,0,0,0,0,0,0,0,0,0,0,0,0,0,0,0,0,0,0,0,0,0,0,0,0,0,0,0,0,0,0,0,0,0,0,0,0,0,0],"sum_hessian":[1.7734733E3,1.5992305E3,1.742428E2,1.4854786E3,1.1375187E2,3.3983803E1,1.40259E2,1.4231404E3,6.233821E1,1.1047827E2,3.2735953E0,2.9879906E1,4.103896E0,1.3280789E2,7.4511075E0,1.3434697E3,7.967066E1,6.1335815E1,1.0023977E0,3.1255026E1,7.922324E1,1.0228812E0,2.2507143E0,1.9984745E1,9.895161E0,1.3150964E2,1.2982491E0,5.886831E0,1.5642767E0,1.2923639E3,5.1105843E1,7.7938614E1,1.7320453E0,2.798524E1,3.2697837E0,7.5995544E1,3.2276978E0,1.6789927E1,3.1948185E0,8.886083E0,1.0090781E0,1.2917903E2,2.3306217E0,2.4694033E0,3.4174278E0,1.2298495E3,6.251443E1,1.1483973E0,4.9957443E1,7.536743E1,2.5711849E0,2.3193432E1,4.79181E0,7.315673E1,2.838813E0,1.4338923E0,1.7938056E0,1.2389328E1,4.4005985E0,1.0683347E0,2.1264837E0,7.6507E0,1.2353828E0,1.22888466E2,6.290555E0,1.3099566E0,1.0206652E0,1.1000782E0,1.369325E0],"tree_param":{"num_deleted":"0","num_feature":"1536","num_nodes":"69","size_leaf_vector":"1"}},{"base_weights":[-1.44231515E-2,2.1273915E-2,-1.0950154E0,6.1894223E-2,-9.272432E-1,-1.1556939E0,2.2914593E-1,9.7824074E-2,-3.1104732E-1,-1.0035052E0,3.0304536E-1,-1.2017219E0,1.6167417E-1,1.4068004E-1,-7.59572E-1,-1.0469477E0,1.5187478E-1,1.8569389E-1,-9.197016E-2,-1.2770195E0,-9.622096E-3,1.779947E-1,-8.3040786E-1,-8.747286E-1,4.4110516E-1,-1.0851595E0,1.506357E-1,-1.3247901E0,1.1453145E-1,-1.7355493E-1,1.8330139E-1,6.0968105E-2,-4.002059E-1,-3.1318447E-1,7.05203E-2,-2.8561062E-1,1.0261405E-1,2.82546E-1,-1.7524797E-1,-3.35908E-1,1.4475167E-1,-4.0778348E-1,1.9748151E-2],"categories":[],"categories_nodes":[],"categories_segments":[],"categories_sizes":[],"default_left":[0,0,0,0,0,0,0,0,0,0,0,0,0,0,0,0,0,0,0,0,0,0,0,0,0,0,0,0,0,0,0,0,0,0,0,0,0,0,0,0,0,0,0],"id":15,"left_children":[1,3,5,7,9,11,-1,13,-1,15,17,19,-1,21,23,25,-1,-1,-1,27,29,31,33,35,37,39,-1,41,-1,-1,-1,-1,-1,-1,-1,-1,-1,-1,-1,-1,-1,-1,-1],"loss_changes":[6.4973366E1,6.2895046E1,6.958084E0,6.1877792E1,6.5939445E0,4.7471848E0,0E0,5.5820316E1,0E0,4.685467E0,1.091312E0,4.608536E0,0E0,5.2504997E1,1.0387432E1,4.2095795E0,0E0,0E0,0E0,4.3420563E0,1.7890589E0,5.3388042E1,1.2450417E1,6.5659637E0,4.14133E0,3.828392E0,0E0,2.3570557E0,0E0,0E0,0E0,0E0,0E0,0E0,0E0,0E0,0E0,0E0,0E0,0E0,0E0,0E0,0E0],"parents":[2147483647,0,0,1,1,2,2,3,3,4,4,5,5,7,7,9,9,10,10,11,11,13,13,14,14,15,15,19,19,20,20,21,21,22,22,23,23,24,24,25,25,27,27],"right_children":[2,4,6,8,10,12,-1,14,-1,16,18,20,-1,22,24,26,-1,-1,-1,28,30,32,34,36,38,40,-1,42,-1,-1,-1,-1,-1,-1,-1,-1,-1,-1,-1,-1,-1,-1,-1],"split_conditions":[6.4535886E-3,6.3226996E-3,1.470652E-1,9.531523E-3,6.6325724E-2,3.5184164E-2,2.2914593E-1,5.6827776E-3,-3.1104732E-1,6.602177E-2,9.4832934E-2,1.1270765E-1,1.6167417E-1,2.0554963E-2,7.603146E-2,7.472403E-2,1.5187478E-1,1.8569389E-1,-9.197016E-2,2.2849593E-1,7.5605825E-2,8.316458E-3,6.1425384E-2,3.0672988E-1,4.9200717E-2,2.1451283E-2,1.506357E-1,3.7489463E-2,1.1453145E-1,-1.7355493E-1,1.8330139E-1,6.0968105E-2,-4.002059E-1,-3.1318447E-1,7.05203E-2,-2.8561062E-1,1.0261405E-1,2.82546E-1,-1.7524797E-1,-3.35908E-1,1.4475167E-1,-4.0778348E-1,1.9748151E-2],"split_indices":[3,898,249,329,383,297,0,885,0,1274,898,73,0,1486,546,1253,0,0,0,139,91,235,1249,497,300,1012,0,612,0,0,0,0,0,0,0,0,0,0,0,0,0,0,0],"split_type":[0,0,0,0,0,0,0,0,0,0,0,0,0,0,0,0,0,0,0,0,0,0,0,0,0,0,0,0,0,0,0,0,0,0,0,0,0,0,0,0,0,0,0],"sum_hessian":[1.6827797E3,1.6299161E3,5.286352E1,1.5638778E3,6.603842E1,5.1558743E1,1.3047775E0,1.515238E3,4.863974E1,6.23574E1,3.6810217E0,5.0478527E1,1.0802165E0,1.4439021E3,7.133588E1,6.091125E1,1.4461503E0,2.414389E0,1.2666329E0,4.7412537E1,3.0659893E0,1.3912589E3,5.2643276E1,6.534055E1,5.9953227E0,5.973715E1,1.1741006E0,4.6281063E1,1.1314723E0,1.6350657E0,1.4309236E0,1.3692742E3,2.1984692E1,4.387096E1,8.772316E0,6.1641773E1,3.69878E0,4.08278E0,1.9125429E0,5.872918E1,1.007971E0,4.5183037E1,1.098028E0],"tree_param":{"num_deleted":"0","num_feature":"1536","num_nodes":"43","size_leaf_vector":"1"}},{"base_weights":[-1.5812727E-2,-6.442631E-2,7.536458E-1,-2.9274167E-2,-1.0172793E0,8.401151E-1,-1.0563425E0,-9.516459E-3,-1.7481159E0,-1.3062116E0,-4.6454176E-1,8.682372E-1,-2.5462353E-1,7.454648E-2,-4.662231E-1,1.9895213E-2,-1.1285262E0,-3.3112594E-1,-2.0792246E0,-1.415287E0,2.1219902E-1,-8.94093E-1,9.687155E-2,8.974631E-1,-2.2296584E-1,6.1517596E-2,-7.9572785E-1,-3.0698183E-1,-4.95945E-1,-2.2903233E0,-2.288228E-1,-1.4613812E0,-1.3920982E-2,-1.0834979E0,1.6044998E-1,5.183441E-1,-7.182773E-1,9.4574267E-1,1.8382043E-1,2.8091015E-2,-3.2186776E-1,-2.747077E-1,1.22991696E-1,-7.33297E-1,-2.272858E-1,-4.665938E-1,-1.8881968E-1,-3.4516883E-1,-9.9473685E-2,2.5022325E-1,-1.6811341E-1,-2.8415376E-1,-1.6721336E-2,-3.7926245E-2,2.89983E-1,1.7983234E-1,-3.02711E-1],"categories":[],"categories_nodes":[],"categories_segments":[],"categories_sizes":[],"default_left":[0,0,0,0,0,0,0,0,0,0,0,0,0,0,0,0,0,0,0,0,0,0,0,0,0,0,0,0,0,0,0,0,0,0,0,0,0,0,0,0,0,0,0,0,0,0,0,0,0,0,0,0,0,0,0,0,0],"id":16,"left_children":[1,3,5,7,9,11,13,15,17,19,21,23,-1,-1,-1,25,27,-1,29,31,-1,33,35,37,-1,39,41,-1,-1,43,-1,45,-1,47,-1,49,51,53,55,-1,-1,-1,-1,-1,-1,-1,-1,-1,-1,-1,-1,-1,-1,-1,-1,-1,-1],"loss_changes":[6.0035786E1,5.052387E1,1.58146515E1,4.9450993E1,7.964428E0,5.0866623E0,3.49818E0,4.74512E1,1.2356033E0,8.620777E0,4.9039054E0,4.9329453E0,0E0,0E0,0E0,4.775143E1,3.4727097E-1,0E0,9.764137E-1,2.0298004E0,0E0,3.6688337E0,3.6571655E0,2.907013E0,0E0,4.8847015E1,1.0253994E1,0E0,0E0,2.3662567E-2,0E0,1.5319061E0,0E0,1.4340878E-1,0E0,2.811769E0,5.0497544E-1,1.9906082E0,4.029337E0,0E0,0E0,0E0,0E0,0E0,0E0,0E0,0E0,0E0,0E0,0E0,0E0,0E0,0E0,0E0,0E0,0E0,0E0],"parents":[2147483647,0,0,1,1,2,2,3,3,4,4,5,5,6,6,7,7,8,8,9,9,10,10,11,11,15,15,16,16,18,18,19,19,21,21,22,22,23,23,25,25,26,26,29,29,31,31,33,33,35,35,36,36,37,37,38,38],"right_children":[2,4,6,8,10,12,14,16,18,20,22,24,-1,-1,-1,26,28,-1,30,32,-1,34,36,38,-1,40,42,-1,-1,44,-1,46,-1,48,-1,50,52,54,56,-1,-1,-1,-1,-1,-1,-1,-1,-1,-1,-1,-1,-1,-1,-1,-1,-1,-1],"split_conditions":[1.5549034E-1,7.2877537E-3,1.7177092E-1,2.8776329E-3,8.025387E-3,1.3515478E-1,3.2610152E-2,1.0400172E-2,1.8031783E-2,2.2616215E-2,6.683312E-3,1.6813765E-1,-2.5462353E-1,7.454648E-2,-4.662231E-1,7.895027E-3,3.7133995E-2,-3.3112594E-1,5.599511E-3,4.4399895E-2,2.1219902E-1,7.087744E-2,8.072511E-3,4.309462E-2,-2.2296584E-1,4.769467E-3,2.7269837E-2,-3.0698183E-1,-4.95945E-1,1.481281E-2,-2.288228E-1,2.780584E-2,-1.3920982E-2,4.6762165E-2,1.6044998E-1,4.721339E-3,3.0698925E-2,1.0294493E-2,3.207361E-2,2.8091015E-2,-3.2186776E-1,-2.747077E-1,1.22991696E-1,-7.33297E-1,-2.272858E-1,-4.665938E-1,-1.8881968E-1,-3.4516883E-1,-9.9473685E-2,2.5022325E-1,-1.6811341E-1,-2.8415376E-1,-1.6721336E-2,-3.7926245E-2,2.89983E-1,1.7983234E-1,-3.02711E-1],"split_indices":[108,460,1119,916,293,920,304,942,410,1180,610,134,0,0,0,137,97,0,27,530,0,1145,98,304,0,1020,612,0,0,680,0,231,0,276,0,203,2,90,362,0,0,0,0,0,0,0,0,0,0,0,0,0,0,0,0,0,0],"split_type":[0,0,0,0,0,0,0,0,0,0,0,0,0,0,0,0,0,0,0,0,0,0,0,0,0,0,0,0,0,0,0,0,0,0,0,0,0,0,0,0,0,0,0,0,0,0,0,0,0,0,0,0,0,0,0,0,0],"sum_hessian":[1.6026737E3,1.5082974E3,9.437637E1,1.4556278E3,5.266952E1,9.058468E1,3.7916937E0,1.44008E3,1.5547866E1,3.369367E1,1.8975855E1,8.957896E1,1.0057226E0,1.1852571E0,2.6064367E0,1.4041558E3,3.5924133E1,6.7484236E0,8.799442E0,3.224409E1,1.4495764E0,1.041472E1,8.561135E0,8.841844E1,1.1605101E0,1.3368586E3,6.729719E1,3.2378613E1,3.5455203E0,6.9459276E0,1.8535142E0,3.112834E1,1.1157502E0,9.409258E0,1.0054619E0,5.8832912E0,2.6778436E0,8.251114E1,5.9073095E0,1.3009419E3,3.591675E1,6.1425972E1,5.8712177E0,5.7712746E0,1.1746532E0,2.7189249E1,3.9390917E0,8.1519985E0,1.2572591E0,4.7266345E0,1.1566567E0,1.6709316E0,1.006912E0,1.4786696E0,8.103246E1,4.7498274E0,1.157482E0],"tree_param":{"num_deleted":"0","num_feature":"1536","num_nodes":"57","size_leaf_vector":"1"}},{"base_weights":[-1.543431E-2,1.2987003E-2,-1.1814378E0,-6.909561E-2,4.21472E-1,-1.303776E0,2.1230434E-1,-1.0936301E-2,-1.0137184E0,-1.0123596E-1,5.9458125E-1,-1.4371912E0,2.0256466E-1,3.687865E-2,-7.486923E-1,-1.129338E0,6.229434E-1,-5.3962904E-1,8.4372675E-1,6.390418E-1,-1.6176015E0,-1.4851213E0,-1.7556503E-2,7.334044E-2,-3.111564E-1,-8.272329E-1,2.2404334E-1,-1.2121992E0,2.3745468E-1,-2.5795823E-2,2.6443198E-1,-8.3843404E-1,3.1418145E-1,9.093245E-1,-6.362727E-2,-4.3693775E-1,7.2787964E-1,-7.806608E-2,-6.4003074E-1,-1.5523275E0,-9.159942E-2,3.0972252E-2,-3.3890477E-1,-9.549439E-2,-2.9994008E-1,-3.889945E-1,7.327349E-2,-2.721981E-1,1.6582015E-1,-1.19441606E-1,3.0298197E-1,2.8768703E-1,3.1384354E-4,-1.8692887E-1,2.3521852E-1,2.3664437E-1,-2.6263726E-1,-3.13424E-1,-5.540713E-1],"categories":[],"categories_nodes":[],"categories_segments":[],"categories_sizes":[],"default_left":[0,0,0,0,0,0,0,0,0,0,0,0,0,0,0,0,0,0,0,0,0,0,0,0,0,0,0,0,0,0,0,0,0,0,0,0,0,0,0,0,0,0,0,0,0,0,0,0,0,0,0,0,0,0,0,0,0,0,0],"id":17,"left_children":[1,3,5,7,9,11,-1,13,15,17,19,21,-1,23,25,27,29,31,33,35,37,39,-1,41,-1,43,-1,45,-1,-1,-1,47,49,51,-1,53,55,-1,-1,57,-1,-1,-1,-1,-1,-1,-1,-1,-1,-1,-1,-1,-1,-1,-1,-1,-1,-1,-1],"loss_changes":[5.13097E1,5.0725643E1,9.437187E0,6.92042E1,2.2964874E1,1.0198906E1,0E0,4.192843E1,1.452845E1,2.6897741E1,1.9750732E1,2.0980072E0,0E0,4.3799416E1,9.115219E0,1.1877113E1,1.0773001E0,1.1542825E1,1.6208534E0,1.8218613E1,2.2683306E0,2.0563736E0,0E0,3.899177E1,0E0,5.7598953E0,0E0,8.4530945E0,0E0,0E0,0E0,3.6664696E0,6.4429417E0,8.826122E-1,0E0,3.876993E0,1.76278E1,0E0,0E0,2.5483475E0,0E0,0E0,0E0,0E0,0E0,0E0,0E0,0E0,0E0,0E0,0E0,0E0,0E0,0E0,0E0,0E0,0E0,0E0,0E0],"parents":[2147483647,0,0,1,1,2,2,3,3,4,4,5,5,7,7,8,8,9,9,10,10,11,11,13,13,14,14,15,15,16,16,17,17,18,18,19,19,20,20,21,21,23,23,25,25,27,27,31,31,32,32,33,33,35,35,36,36,39,39],"right_children":[2,4,6,8,10,12,-1,14,16,18,20,22,-1,24,26,28,30,32,34,36,38,40,-1,42,-1,44,-1,46,-1,-1,-1,48,50,52,-1,54,56,-1,-1,58,-1,-1,-1,-1,-1,-1,-1,-1,-1,-1,-1,-1,-1,-1,-1,-1,-1,-1,-1],"split_conditions":[5.8759976E-2,8.025387E-3,3.187694E-2,2.0289224E-2,5.448016E-3,2.1383703E-2,2.1230434E-1,5.8940207E-3,6.2031564E-3,1.0215348E-2,1.3972953E-1,4.3409675E-2,2.0256466E-1,9.531523E-3,6.695893E-2,8.399949E-2,4.26099E-2,5.6801155E-2,4.1635145E-2,5.3920583E-3,4.0675092E-2,8.9414984E-2,-1.7556503E-2,4.208349E-2,-3.111564E-1,3.1095E-2,2.2404334E-1,1.6050868E-2,2.3745468E-1,-2.5795823E-2,2.6443198E-1,7.1707414E-3,4.984263E-2,7.069675E-2,-6.362727E-2,6.913008E-3,5.434133E-3,-7.806608E-2,-6.4003074E-1,1.1921401E-1,-9.159942E-2,3.0972252E-2,-3.3890477E-1,-9.549439E-2,-2.9994008E-1,-3.889945E-1,7.327349E-2,-2.721981E-1,1.6582015E-1,-1.19441606E-1,3.0298197E-1,2.8768703E-1,3.1384354E-4,-1.8692887E-1,2.3521852E-1,2.3664437E-1,-2.6263726E-1,-3.13424E-1,-5.540713E-1],"split_indices":[248,293,1161,79,227,458,0,170,668,612,1174,1154,0,329,1274,432,105,473,885,862,410,169,0,889,0,15,0,1478,0,0,0,1264,169,583,0,805,1487,0,0,97,0,0,0,0,0,0,0,0,0,0,0,0,0,0,0,0,0,0,0],"split_type":[0,0,0,0,0,0,0,0,0,0,0,0,0,0,0,0,0,0,0,0,0,0,0,0,0,0,0,0,0,0,0,0,0,0,0,0,0,0,0,0,0,0,0,0,0,0,0,0,0,0,0,0,0,0,0,0,0,0,0],"sum_hessian":[1.5468384E3,1.5109968E3,3.5841656E1,1.2588661E3,2.5213072E2,3.3952747E1,1.8889096E0,1.1868073E3,7.205875E1,6.2829754E1,1.8930096E2,3.2064846E1,1.8879013E0,1.1154626E3,7.134461E1,6.759366E1,4.4650865E0,4.3211666E1,1.9618088E1,1.8626846E2,3.0325046E0,3.0912931E1,1.1519134E0,1.07974E3,3.5722675E1,6.820927E1,3.1353507E0,6.515208E1,2.4415793E0,1.3713913E0,3.093695E0,3.2022778E1,1.1188887E1,1.860115E1,1.0169377E0,1.3907414E1,1.7236105E2,1.2493618E0,1.7831428E0,2.8948145E1,1.9647856E0,1.0544465E3,2.5293434E1,1.7992414E1,5.021685E1,6.1685104E1,3.466976E0,3.0843168E1,1.1796107E0,5.7400074E0,5.448879E0,1.7584465E1,1.0166863E0,1.2492449E1,1.4149657E0,1.6653972E2,5.821332E0,1.2300291E1,1.6647854E1],"tree_param":{"num_deleted":"0","num_feature":"1536","num_nodes":"59","size_leaf_vector":"1"}},{"base_weights":[-1.3528489E-2,-6.399573E-2,6.019689E-1,-3.1205159E-2,-1.01894E0,6.8074757E-1,-2.9674506E-1,3.2114185E-2,-5.15686E-1,-1.2295856E0,3.285065E-1,7.195936E-1,-2.74994E-1,1.571644E-1,-2.57833E-1,-6.8814725E-1,7.652303E-1,-1.4124974E0,-2.2762963E-1,7.4660337E-1,-2.7469057E-1,-2.1429162E-1,2.8575322E-1,-3.548072E-1,4.2879516E-1,-3.523508E-1,-1.1144094E0,9.432204E-1,-3.5481137E-1,-1.5919756E0,-7.152721E-1,2.6766655E-1,-6.726493E-1,7.727126E-1,-2.8222388E-1,-1.649069E-1,5.590147E-2,1.22250594E-1,-3.2073934E-2,-1.1931984E-1,3.5230735E-1,1.6708396E-1,-3.192452E-1,-4.421435E-2,-2.8790426E-1,-3.565225E-1,1.7784189E-1,3.01813E-1,8.9065015E-2,4.8040517E-2,-2.1417168E-1,-3.0658716E-1,-5.944931E-1,-2.495706E-1,3.140341E-2,-2.8055277E-1,1.5722657E-2,2.5016713E-1,1.1380264E-2],"categories":[],"categories_nodes":[],"categories_segments":[],"categories_sizes":[],"default_left":[0,0,0,0,0,0,0,0,0,0,0,0,0,0,0,0,0,0,0,0,0,0,0,0,0,0,0,0,0,0,0,0,0,0,0,0,0,0,0,0,0,0,0,0,0,0,0,0,0,0,0,0,0,0,0,0,0,0,0],"id":18,"left_children":[1,3,5,7,9,11,-1,13,15,17,-1,19,-1,21,23,25,27,29,31,33,-1,35,37,39,41,43,45,47,49,51,53,-1,55,57,-1,-1,-1,-1,-1,-1,-1,-1,-1,-1,-1,-1,-1,-1,-1,-1,-1,-1,-1,-1,-1,-1,-1,-1,-1],"loss_changes":[4.560517E1,4.2449993E1,1.46195755E1,4.0285294E1,2.1387886E1,7.2747154E0,0E0,4.216794E1,3.405782E1,7.2657776E0,0E0,5.3050156E0,0E0,3.886535E1,2.3489285E1,1.8831085E1,4.019764E0,3.218132E0,4.379243E0,5.2859955E0,0E0,2.825069E1,2.8914585E1,2.0661892E1,8.977766E0,9.392246E0,8.122368E0,3.6008072E-1,7.173958E-1,3.94384E0,9.423537E-1,0E0,1.190481E0,4.5740356E0,0E0,0E0,0E0,0E0,0E0,0E0,0E0,0E0,0E0,0E0,0E0,0E0,0E0,0E0,0E0,0E0,0E0,0E0,0E0,0E0,0E0,0E0,0E0,0E0,0E0],"parents":[2147483647,0,0,1,1,2,2,3,3,4,4,5,5,7,7,8,8,9,9,11,11,13,13,14,14,15,15,16,16,17,17,18,18,19,19,21,21,22,22,23,23,24,24,25,25,26,26,27,27,28,28,29,29,30,30,32,32,33,33],"right_children":[2,4,6,8,10,12,-1,14,16,18,-1,20,-1,22,24,26,28,30,32,34,-1,36,38,40,42,44,46,48,50,52,54,-1,56,58,-1,-1,-1,-1,-1,-1,-1,-1,-1,-1,-1,-1,-1,-1,-1,-1,-1,-1,-1,-1,-1,-1,-1,-1,-1],"split_conditions":[1.2825855E-2,4.0824055E-3,4.208349E-2,1.8341623E-2,1.4642397E-2,4.288821E-2,-2.9674506E-1,4.245868E-2,2.9589606E-2,3.6812842E-2,3.285065E-1,1.94682E-1,-2.74994E-1,1.3466785E-2,4.7454894E-2,4.9193352E-3,5.235995E-3,1.6264558E-2,2.3953117E-2,5.990091E-2,-2.7469057E-1,1.2037041E-2,7.355891E-3,4.918698E-2,8.12105E-3,5.2110694E-2,6.7684956E-2,5.8275294E-2,1.2529743E-2,6.68346E-3,7.2571196E-2,2.6766655E-1,5.5476636E-2,1.05074875E-1,-2.8222388E-1,-1.649069E-1,5.590147E-2,1.22250594E-1,-3.2073934E-2,-1.1931984E-1,3.5230735E-1,1.6708396E-1,-3.192452E-1,-4.421435E-2,-2.8790426E-1,-3.565225E-1,1.7784189E-1,3.01813E-1,8.9065015E-2,4.8040517E-2,-2.1417168E-1,-3.0658716E-1,-5.944931E-1,-2.495706E-1,3.140341E-2,-2.8055277E-1,1.5722657E-2,2.5016713E-1,1.1380264E-2],"split_indices":[386,757,889,212,297,434,0,253,1183,467,0,920,0,97,525,560,404,469,15,314,0,7,134,771,1025,177,108,1044,560,862,227,0,366,14,0,0,0,0,0,0,0,0,0,0,0,0,0,0,0,0,0,0,0,0,0,0,0,0,0],"split_type":[0,0,0,0,0,0,0,0,0,0,0,0,0,0,0,0,0,0,0,0,0,0,0,0,0,0,0,0,0,0,0,0,0,0,0,0,0,0,0,0,0,0,0,0,0,0,0,0,0,0,0,0,0,0,0,0,0,0,0],"sum_hessian":[1.4659368E3,1.3556752E3,1.1026153E2,1.3116682E3,4.4006966E1,1.0560503E2,4.6565037E0,1.1608804E3,1.5078784E2,4.039969E1,3.6072767E0,1.0363432E2,1.9706975E0,8.113949E2,3.4948544E2,1.3330284E2,1.7484995E1,3.3816574E1,6.583116E0,1.0248496E2,1.1493623E0,2.0848251E2,6.029124E2,3.0665857E2,4.2826878E1,7.558549E1,5.7717358E1,1.5223622E1,2.2613728E0,2.5873083E1,7.943491E0,1.5863378E0,4.9967785E0,1.0145712E2,1.0278426E0,1.1327731E2,9.520521E1,4.601898E2,1.4272263E2,2.9900504E2,7.65355E0,4.0018703E1,2.8081746E0,5.7441917E1,1.8143574E1,5.5610813E1,2.1065447E0,1.3367764E1,1.855858E0,1.1567025E0,1.1046703E0,1.1976347E1,1.3896735E1,6.941548E0,1.0019431E0,3.4557412E0,1.5410371E0,9.353452E1,7.9225993E0],"tree_param":{"num_deleted":"0","num_feature":"1536","num_nodes":"59","size_leaf_vector":"1"}},{"base_weights":[-9.31862E-3,2.0007111E-2,-1.0210184E0,4.2901285E-2,-3.9586323E-1,-1.1479243E0,1.4549272E-1,6.668591E-2,-1.2199628E0,-1.2210406E0,2.7442433E-2,4.7796518E-1,-8.6841226E-2,9.61732E-2,-9.8369366E-1,1.5740158E-1,-1.3913534E0,-1.2671775E0,-5.925307E-2,-1.6467851E-1,1.828578E-1,2.3953922E-2,1.9022939E-1,1.1222994E-1,-1.8342113E0,-6.0297146E-2,-3.0052426E-1,-4.41237E-1,5.0865874E-2,-3.8639325E-1,-1.2764895E-1,2.405494E-2,3.1087333E-1,-2.688657E-1,-6.4804417E-1],"categories":[],"categories_nodes":[],"categories_segments":[],"categories_sizes":[],"default_left":[0,0,0,0,0,0,0,0,0,0,0,0,0,0,0,0,0,0,0,0,0,0,0,0,0,0,0,0,0,0,0,0,0,0,0],"id":19,"left_children":[1,3,5,7,-1,9,11,13,15,17,19,21,-1,23,25,-1,27,29,-1,-1,-1,-1,-1,31,33,-1,-1,-1,-1,-1,-1,-1,-1,-1,-1],"loss_changes":[4.1697502E1,4.1953636E1,6.0279427E0,4.0455666E1,0E0,3.111721E0,8.2845825E-1,4.098694E1,8.17535E0,1.3431511E0,1.3664768E0,1.4093637E-1,0E0,4.0039143E1,3.0935287E-1,0E0,3.0945396E0,1.3999939E-2,0E0,0E0,0E0,0E0,0E0,3.7685593E1,1.3227654E0,0E0,0E0,0E0,0E0,0E0,0E0,0E0,0E0,0E0,0E0],"parents":[2147483647,0,0,1,1,2,2,3,3,5,5,6,6,7,7,8,8,9,9,10,10,11,11,13,13,14,14,16,16,17,17,23,23,24,24],"right_children":[2,4,6,8,-1,10,12,14,16,18,20,22,-1,24,26,-1,28,30,-1,-1,-1,-1,-1,32,34,-1,-1,-1,-1,-1,-1,-1,-1,-1,-1],"split_conditions":[6.047359E-3,1.2291317E-2,1.2821463E-1,6.3913073E-3,-3.9586323E-1,6.175788E-2,1.0991507E-2,5.434133E-3,5.3920583E-3,1.51239E-1,2.707574E-2,4.1524485E-2,-8.6841226E-2,5.617512E-2,8.042582E-3,1.5740158E-1,1.3487664E-1,1.3739694E-2,-5.925307E-2,-1.6467851E-1,1.828578E-1,2.3953922E-2,1.9022939E-1,6.913008E-3,4.5211814E-2,-6.0297146E-2,-3.0052426E-1,-4.41237E-1,5.0865874E-2,-3.8639325E-1,-1.2764895E-1,2.405494E-2,3.1087333E-1,-2.688657E-1,-6.4804417E-1],"split_indices":[511,1463,276,876,0,676,143,1487,862,114,177,177,0,1212,862,0,429,1478,0,0,0,0,0,805,97,0,0,0,0,0,0,0,0,0,0],"split_type":[0,0,0,0,0,0,0,0,0,0,0,0,0,0,0,0,0,0,0,0,0,0,0,0,0,0,0,0,0,0,0,0,0,0,0],"sum_hessian":[1.4037426E3,1.3651517E3,3.8590878E1,1.3431638E3,2.1987944E1,3.4818832E1,3.7720432E0,1.3192642E3,2.389966E1,3.2743114E1,2.0757167E0,2.0818665E0,1.6901765E0,1.2841234E3,3.514073E1,1.9534688E0,2.1946192E1,3.1103062E1,1.6400554E0,1.0715965E0,1.0041201E0,1.0122241E0,1.0696425E0,1.2744644E3,9.659006E0,1.0658265E0,3.4074905E1,2.0938347E1,1.007845E0,2.9835508E1,1.2675524E0,1.2327952E3,4.1669205E1,3.4577684E0,6.201237E0],"tree_param":{"num_deleted":"0","num_feature":"1536","num_nodes":"35","size_leaf_vector":"1"}},{"base_weights":[-1.0494105E-2,1.1807677E-1,-2.3189776E-1,1.362512E-1,-1.5899951E0,-2.7481422E-1,7.2969264E-1,1.636907E-1,-3.0059892E-1,-1.7481769E0,-5.143761E-2,-3.323561E-1,4.6279508E-1,8.1149566E-1,-5.745629E-2,1.8957575E-1,-3.1803262E-1,-1.9289488E-1,-5.7099956E-1,-4.5341083E-1,6.784061E-2,-7.270227E-2,8.6259013E-1,9.518896E-1,-6.796335E-2,2.751585E-2,4.1004178E-1,-5.298748E-1,3.7897786E-1,-9.6396714E-1,1.7672503E-1,-4.0319014E-1,6.1492705E-1,6.592081E-1,5.3317285E-1,3.1571615E-1,-3.9621558E-2,-1.5158823E-1,1.11063845E-1,-7.506794E-2,7.218385E-2,-1.7984779E-1,1.4636375E-1,-1.1471273E-1,-2.8041723E-1,-1.9854805E-1,1.7240113E-1,-3.0359805E-1,-7.907031E-2,1.3198434E-1,-1.1495257E-1,-2.6085362E-1,1.6900164E-1,2.7065805E-1,-9.5075734E-2,2.4386925E-1,-2.0030867E-1],"categories":[],"categories_nodes":[],"categories_segments":[],"categories_sizes":[],"default_left":[0,0,0,0,0,0,0,0,0,0,0,0,0,0,0,0,0,0,0,0,0,0,0,0,0,0,0,0,0,0,0,0,0,0,0,0,0,0,0,0,0,0,0,0,0,0,0,0,0,0,0,0,0,0,0,0,0],"id":20,"left_children":[1,3,5,7,9,11,13,15,-1,17,-1,19,21,23,-1,25,-1,-1,-1,27,29,31,33,35,37,39,41,43,45,47,49,51,53,55,-1,-1,-1,-1,-1,-1,-1,-1,-1,-1,-1,-1,-1,-1,-1,-1,-1,-1,-1,-1,-1,-1,-1],"loss_changes":[3.877504E1,2.6969318E1,2.0851055E1,2.6825592E1,1.7538643E0,2.051593E1,1.7871189E0,2.6633223E1,0E0,1.694622E-1,0E0,2.1618744E1,7.5848103E0,2.5436945E0,0E0,2.9213602E1,0E0,0E0,0E0,2.1984482E1,1.1894765E1,3.870583E0,2.5850525E0,2.0323248E0,8.9556557E-1,2.8025671E1,2.7517578E1,1.838565E1,6.3639045E0,7.356262E-2,1.420516E1,5.614646E0,1.7771015E0,4.236035E0,0E0,0E0,0E0,0E0,0E0,0E0,0E0,0E0,0E0,0E0,0E0,0E0,0E0,0E0,0E0,0E0,0E0,0E0,0E0,0E0,0E0,0E0,0E0],"parents":[2147483647,0,0,1,1,2,2,3,3,4,4,5,5,6,6,7,7,9,9,11,11,12,12,13,13,15,15,19,19,20,20,21,21,22,22,23,23,24,24,25,25,26,26,27,27,28,28,29,29,30,30,31,31,32,32,33,33],"right_children":[2,4,6,8,10,12,14,16,-1,18,-1,20,22,24,-1,26,-1,-1,-1,28,30,32,34,36,38,40,42,44,46,48,50,52,54,56,-1,-1,-1,-1,-1,-1,-1,-1,-1,-1,-1,-1,-1,-1,-1,-1,-1,-1,-1,-1,-1,-1,-1],"split_conditions":[5.4026514E-2,5.96139E-3,7.427767E-2,9.531523E-3,1.6029249E-1,9.795979E-2,5.600771E-3,4.208349E-2,-3.0059892E-1,2.1028152E-2,-5.143761E-2,3.6011804E-2,1.954498E-2,4.3772016E-2,-5.745629E-2,5.2579283E-3,-3.1803262E-1,-1.9289488E-1,-5.7099956E-1,1.2789268E-2,4.5211814E-2,7.18675E-3,1.3694748E-1,4.462806E-2,7.7800085E-3,1.1354909E-2,6.4469175E-3,1.640696E-1,1.3466785E-2,4.739932E-2,1.1103613E-1,9.182883E-2,5.3379957E-2,1.2042369E-1,5.3317285E-1,3.1571615E-1,-3.9621558E-2,-1.5158823E-1,1.11063845E-1,-7.506794E-2,7.218385E-2,-1.7984779E-1,1.4636375E-1,-1.1471273E-1,-2.8041723E-1,-1.9854805E-1,1.7240113E-1,-3.0359805E-1,-7.907031E-2,1.3198434E-1,-1.1495257E-1,-2.6085362E-1,1.6900164E-1,2.7065805E-1,-9.5075734E-2,2.4386925E-1,-2.0030867E-1],"split_indices":[14,1411,965,329,90,448,764,889,0,610,0,304,7,448,0,304,0,0,0,612,97,103,557,73,201,557,366,97,97,367,112,947,143,1150,0,0,0,0,0,0,0,0,0,0,0,0,0,0,0,0,0,0,0,0,0,0,0],"split_type":[0,0,0,0,0,0,0,0,0,0,0,0,0,0,0,0,0,0,0,0,0,0,0,0,0,0,0,0,0,0,0,0,0,0,0,0,0,0,0,0,0,0,0,0,0,0,0,0,0,0,0,0,0,0,0,0,0],"sum_hessian":[1.3601879E3,8.60788E2,4.9939984E2,8.526359E2,8.152084E0,4.7874722E2,2.0652617E1,8.334015E2,1.9234455E1,7.125171E0,1.0269128E0,4.4461185E2,3.4135353E1,1.9077637E1,1.5749781E0,8.169666E2,1.6434877E1,1.5104089E0,5.614763E0,3.4125372E2,1.0335815E2,1.4941036E1,1.9194315E1,1.6380371E1,2.6972663E0,4.7150104E2,3.454656E2,3.1287607E2,2.8377644E1,9.116402E0,9.4241745E1,1.037045E1,4.5705857E0,1.7110376E1,2.08394E0,1.5017207E1,1.3631638E0,1.2732736E0,1.4239926E0,2.0462567E2,2.6687537E2,2.4249743E1,3.2121585E2,2.3075092E2,8.212516E1,4.1141706E0,2.4263474E1,8.115072E0,1.0013298E0,6.4250336E1,2.9991407E1,7.0630918E0,3.3073583E0,3.517916E0,1.0526699E0,1.56814375E1,1.4289384E0],"tree_param":{"num_deleted":"0","num_feature":"1536","num_nodes":"57","size_leaf_vector":"1"}},{"base_weights":[-7.567298E-3,2.961935E-2,-7.24502E-1,5.146551E-2,-1.2428466E0,-8.241729E-1,6.9670296E-1,6.5276094E-2,-1.7888856E0,-3.8671175E-1,-4.985682E-2,-9.2427075E-1,8.1815714E-1,6.639866E-2,2.3446922E-1,8.886924E-2,-9.8011446E-1,-4.8194498E-2,-2.0452783E0,-9.829816E-1,1.4378653E-1,-4.881232E-2,4.4888765E-1,1.0451546E-1,-4.568682E-1,-3.0958194E-1,5.3066637E-2,-2.3004482E0,-2.433986E-1,-4.3822134E-1,-1.1594026E0,3.6952212E-2,-3.7952107E-1,-8.0572677E-1,-2.4427326E-1,-2.0105869E-1,2.0180078E-1,-3.673877E-1,1.9301309E-1],"categories":[],"categories_nodes":[],"categories_segments":[],"categories_sizes":[],"default_left":[0,0,0,0,0,0,0,0,0,0,0,0,0,0,0,0,0,0,0,0,0,0,0,0,0,0,0,0,0,0,0,0,0,0,0,0,0,0,0],"id":21,"left_children":[1,3,5,7,9,11,13,15,17,-1,-1,19,21,-1,-1,23,25,-1,27,29,-1,-1,-1,31,-1,-1,-1,33,-1,35,37,-1,-1,-1,-1,-1,-1,-1,-1],"loss_changes":[3.481412E1,3.4579674E1,9.695499E0,3.1166431E1,8.3002853E-1,1.0723412E1,1.9114017E-2,3.0017128E1,3.4847946E0,0E0,0E0,5.2189827E0,2.9130664E0,0E0,0E0,3.0109137E1,1.793478E0,0E0,5.916176E-1,4.8384666E0,0E0,0E0,0E0,3.0237564E1,0E0,0E0,0E0,1.2055092E0,0E0,4.372093E0,5.6575394E0,0E0,0E0,0E0,0E0,0E0,0E0,0E0,0E0],"parents":[2147483647,0,0,1,1,2,2,3,3,4,4,5,5,6,6,7,7,8,8,11,11,12,12,15,15,16,16,18,18,19,19,23,23,27,27,29,29,30,30],"right_children":[2,4,6,8,10,12,14,16,18,-1,-1,20,22,-1,-1,24,26,-1,28,30,-1,-1,-1,32,-1,-1,-1,34,-1,36,38,-1,-1,-1,-1,-1,-1,-1,-1],"split_conditions":[5.235995E-3,1.179493E-2,1.6635599E-2,4.616289E-3,2.3671879E-2,1.1908997E-1,9.969463E-2,2.3423443E-2,3.8622968E-2,-3.8671175E-1,-4.985682E-2,1.441777E-2,5.541752E-2,6.639866E-2,2.3446922E-1,2.8776329E-3,4.3436695E-2,-4.8194498E-2,1.1524159E-1,3.2463435E-2,1.4378653E-1,-4.881232E-2,4.4888765E-1,1.2291317E-2,-4.568682E-1,-3.0958194E-1,5.3066637E-2,1.9178208E-2,-2.433986E-1,5.5890705E-2,9.517063E-2,3.6952212E-2,-3.7952107E-1,-8.0572677E-1,-2.4427326E-1,-2.0105869E-1,2.0180078E-1,-3.673877E-1,1.9301309E-1],"split_indices":[404,1194,524,1387,71,1447,114,89,97,0,0,805,410,0,0,916,77,0,367,15,0,0,0,1463,0,0,0,7,0,469,604,0,0,0,0,0,0,0,0],"split_type":[0,0,0,0,0,0,0,0,0,0,0,0,0,0,0,0,0,0,0,0,0,0,0,0,0,0,0,0,0,0,0,0,0,0,0,0,0,0,0],"sum_hessian":[1.3040315E3,1.2406395E3,6.3391975E1,1.2206426E3,1.9996885E1,5.963013E1,3.7618456E0,1.212508E3,8.134517E0,1.8985092E1,1.011792E0,5.661664E1,3.0134902E0,1.1163602E0,2.6454854E0,1.1866421E3,2.5866024E1,1.3279382E0,6.806579E0,5.4631073E1,1.9855669E0,1.5424838E0,1.4710063E0,1.1761597E3,1.0482442E1,2.4860546E1,1.0054783E0,4.924035E0,1.8825437E0,1.4216547E1,4.0414524E1,1.1612494E3,1.4910235E1,3.26932E0,1.6547153E0,1.2088874E1,2.1276734E0,3.9312916E1,1.1016088E0],"tree_param":{"num_deleted":"0","num_feature":"1536","num_nodes":"39","size_leaf_vector":"1"}},{"base_weights":[-1.008711E-2,2.208864E-2,-7.7429E-1,4.267773E-2,-1.166592E0,-3.6532724E-1,-1.2895371E0,6.634174E-2,-9.683638E-1,-1.2713802E0,1.291241E-1,-5.589586E-1,9.110271E-1,-1.4044546E0,1.6932249E-1,-7.178795E-2,2.5340992E-1,-2.9677048E-1,-6.298911E-2,-3.9883795E-1,-2.7573852E-2,1.9675806E-1,-7.66565E-1,3.6719412E-1,5.4903777E-4,-1.7272667E0,-5.263472E-1,-4.8483163E-2,-1.8522943E0,3.3279178E-1,-6.883598E-1,-6.712403E-1,1.049599E0,-8.744067E-1,2.097472E-1,-1.8450391E0,-3.272029E-2,1.5135571E-1,-9.589391E-1,4.457144E-3,-1.9792257E-1,2.435769E-2,-7.300003E-1,1.0726052E-1,-6.495015E-1,1.0927329E-1,-3.967853E-1,-3.6436345E-2,-2.620532E-1,4.3095693E-1,9.332342E-3,-3.2166743E-1,1.8414112E-2,-5.796444E-1,-1.3121204E-1,-5.0075985E-3,-3.946861E-1],"categories":[],"categories_nodes":[],"categories_segments":[],"categories_sizes":[],"default_left":[0,0,0,0,0,0,0,0,0,0,0,0,0,0,0,0,0,0,0,0,0,0,0,0,0,0,0,0,0,0,0,0,0,0,0,0,0,0,0,0,0,0,0,0,0,0,0,0,0,0,0,0,0,0,0,0,0],"id":22,"left_children":[1,3,5,7,9,11,13,15,17,19,-1,21,23,25,-1,27,29,-1,-1,-1,-1,31,33,-1,-1,35,37,39,41,43,45,47,49,51,-1,53,-1,-1,55,-1,-1,-1,-1,-1,-1,-1,-1,-1,-1,-1,-1,-1,-1,-1,-1,-1,-1],"loss_changes":[3.124002E1,2.989495E1,1.0345209E1,2.8766783E1,4.0277195E0,7.926541E0,5.547699E0,3.0332582E1,2.27602E-1,1.2321396E0,0E0,4.336502E0,1.2308173E0,5.1293907E0,0E0,2.7945412E1,3.7499077E1,0E0,0E0,0E0,0E0,5.549795E0,3.951826E0,0E0,0E0,2.6837845E0,3.6787863E0,2.5870552E1,9.97393E0,2.9231682E1,2.6572836E1,3.2246757E-1,1.4100733E0,3.7920837E0,0E0,8.7752914E-1,0E0,0E0,1.7900157E0,0E0,0E0,0E0,0E0,0E0,0E0,0E0,0E0,0E0,0E0,0E0,0E0,0E0,0E0,0E0,0E0,0E0,0E0],"parents":[2147483647,0,0,1,1,2,2,3,3,4,4,5,5,6,6,7,7,8,8,9,9,11,11,12,12,13,13,15,15,16,16,21,21,22,22,25,25,26,26,27,27,28,28,29,29,30,30,31,31,32,32,33,33,35,35,38,38],"right_children":[2,4,6,8,10,12,14,16,18,20,-1,22,24,26,-1,28,30,-1,-1,-1,-1,32,34,-1,-1,36,38,40,42,44,46,48,50,52,-1,54,-1,-1,56,-1,-1,-1,-1,-1,-1,-1,-1,-1,-1,-1,-1,-1,-1,-1,-1,-1,-1],"split_conditions":[3.9421804E-2,8.316458E-3,2.0219833E-2,5.434133E-3,2.8867127E-2,7.568954E-2,4.884529E-2,5.448016E-3,1.4174125E-1,4.1990247E-2,1.291241E-1,2.0510064E-2,4.0113952E-2,3.597304E-2,1.6932249E-1,3.8405176E-2,1.3182565E-2,-2.9677048E-1,-6.298911E-2,-3.9883795E-1,-2.7573852E-2,1.0646085E-1,1.603966E-1,3.6719412E-1,5.4903777E-4,1.05452076E-1,1.6099112E-2,1.8637342E-2,2.1417905E-2,3.6802613E-3,1.6626969E-2,7.825016E-2,1.6092198E-1,9.234708E-2,2.097472E-1,7.468991E-2,-3.272029E-2,1.5135571E-1,1.2664743E-1,4.457144E-3,-1.9792257E-1,2.435769E-2,-7.300003E-1,1.0726052E-1,-6.495015E-1,1.0927329E-1,-3.967853E-1,-3.6436345E-2,-2.620532E-1,4.3095693E-1,9.332342E-3,-3.2166743E-1,1.8414112E-2,-5.796444E-1,-1.3121204E-1,-5.0075985E-3,-3.946861E-1],"split_indices":[1174,235,862,1487,405,799,129,227,397,570,0,15,125,469,0,176,1080,0,0,0,0,97,60,0,0,60,10,862,103,284,410,369,97,397,0,155,0,0,1174,0,0,0,0,0,0,0,0,0,0,0,0,0,0,0,0,0,0],"split_type":[0,0,0,0,0,0,0,0,0,0,0,0,0,0,0,0,0,0,0,0,0,0,0,0,0,0,0,0,0,0,0,0,0,0,0,0,0,0,0,0,0,0,0,0,0,0,0,0,0,0,0,0,0,0,0,0,0],"sum_hessian":[1.2688024E3,1.2184713E3,5.0331024E1,1.1986733E3,1.9798075E1,2.9012335E1,2.131869E1,1.1721724E3,2.6500986E1,1.877035E1,1.0277267E0,2.5678762E1,3.333571E0,2.0302671E1,1.0160183E0,6.746398E2,4.975325E2,2.5494995E1,1.0059892E0,1.776823E1,1.0021178E0,5.54531E0,2.0133453E1,2.222386E0,1.111185E0,1.4138139E1,6.1645327E0,6.6693756E2,7.702219E0,4.594519E2,3.80806E1,2.8537633E0,2.6915467E0,1.9129421E1,1.0040326E0,1.3048303E1,1.0898355E0,1.7730604E0,4.3914723E0,6.052007E2,6.173687E1,1.978561E0,5.723658E0,4.5579364E2,3.6582499E0,1.4478322E1,2.360228E1,1.1979907E0,1.6557728E0,1.6530949E0,1.0384517E0,1.5670913E1,3.4585075E0,1.193703E1,1.1112736E0,1.4933302E0,2.898142E0],"tree_param":{"num_deleted":"0","num_feature":"1536","num_nodes":"57","size_leaf_vector":"1"}},{"base_weights":[-1.0295659E-2,1.0230612E-2,